Layer 0

Neuron 0
Weights: 
0.436212
0.36276
0.47087
0.0632884
0.568566
0.141811
0.814838
0.886003
-0.478031
0.283064
0.727449
0.19087
-0.456755
-1.24035
-0.671525
0.280163
-0.210875
-0.817162
0.267975
-1.3603
1.07111
0.0138274
0.791411
0.333494
-0.189457
0.660388
0.819457
-0.250391
0.461659
0.260877
1.03811
-0.520064
0.531498
-0.221923
-0.45965
0.0210008
-0.191242
0.383792
-0.437671
-0.518258
-0.339601
-0.48392
-0.154381
-0.350177
-0.588324
-0.247577
0.181607
0.0480032
-0.988059
-0.0453672
-0.240149
-1.46414
0.890429
0.0362789
0.539301
-0.0268528
0.506474
0.916041
1.37864
0.368336
0.659515
0.249641
-0.321626
-0.413001
-0.00363361
-0.130112
-0.143938
-0.723119
-0.917637
-0.587353
-0.322585
0.288626
-1.09881
0.148192
0.045402
-0.413564
-0.074209
-0.226025
0.599459
-0.307906
0.247826
0.0491245
-0.408381
0.156927
0.22857
1.74349
0.505247
0.294845
-0.928304
-0.335221
1.02054
0.0290762
-0.76129
-0.216582
-0.410663
-0.593491
0.347703
0.229743
-1.15291
0.218437
-0.720367
-0.617499
0.518136
-0.898736
-0.859402
0.0133706
-0.0553126
-0.814547
0.186586
0.0645503
-0.804718
-0.127156
1.91423
0.476578
0.698167
0.0385375
0.0203604
0.245327
0.24858
-0.655901
-0.0317692
0.0822729
-0.109734
-0.195509
-0.810103
-0.352412
-1.02184
-0.356654
0.00464915
-0.409747
-0.0578144
-0.443898
1.0142
-0.70235
0.618332
-0.376631
-0.254819
0.107081
0.511864
0.107318
1.01985
0.165326
0.0326431
-0.875129
0.267254
-0.824377
0.247544
0.163469
-0.911707
0.194292
-0.66956
-1.12914
-0.171857
0.323288
0.141322
-0.747908
-0.769839
0.410224
-0.316947
0.158468
-0.514491
-0.138471
0.0532169
-0.519841
0.0420659
0.227089
0.10201
-1.23669
0.676559
0.464386
0.318869
0.406716
-0.153326
0.427501
-1.24088
0.318095
0.244328
-0.0737583
0.151099
-0.131158
-0.333865
-0.446097
-0.807987
-0.325255
-0.454155
-0.53769
0.153839
-0.308361
0.316439
-0.766974
0.863828
-0.106693
-0.853849
-0.125975
0.337923
-0.456383
0.814293
-0.0283989
0.253716
-0.237347
-0.337094
-0.331907
0.440596
-0.25416
-0.55606
0.00199361
-1.4172
0.387115
-0.638686
0.147985
-0.253637
-0.682284
0.148408
-0.578943
0.685355
-0.0495208
-0.425404
0.622822
-0.64603
-0.211148
0.717178
-0.434406
-0.26734
-0.0519897
0.198804
0.469044
0.201936
0.401002
-0.23363
-0.436885
0.0837467
0.378154
-0.338699
-0.167241
0.451716
-0.487549
-0.327812
0.00155049
-0.338444
-0.597403
-0.537113
-0.130346
0.00675564
-0.121508
-0.234043
0.332798
0.217379
-0.34974
-0.0910191
0.131831
0.2282
-0.723538
1.02747
0.236743
-0.0118759
0.0998478
0.379455
-0.521155
-0.994432
-0.0537848
-0.280459
-0.103001
-0.645885
-0.277943
-0.254005
-0.415008
-0.916613
-0.0125346
-0.522083
0.0230228
-0.152045
0.336797
0.457754
-0.672347
0.312289
-0.0863632
-0.303878
0.768845
-0.927183
0.316468
0.630083
0.0380768
-0.117047
-0.35201
0.262669
-0.0478192
-0.0635731
-0.0268835
-0.486051
0.346019
0.254754
-0.354589
0.0666303
-0.373243
-0.274401
-1.02039
-1.08011
-0.390528
0.484458
-0.771571
0.18632
-0.208786
-0.0380862
0.846612
0.467087
0.310553
0.547739
-0.278722
0.261509
0.410188
0.926632
0.549332
-0.233378
-0.024835
-0.156201
0.178455
0.270288
-0.336947
-0.177413
0.211066
-0.336298
0.127744
0.0554312
-0.716604
-0.455544
0.424985
-0.184526
0.737582
0.0748699
0.548188
0.469502
0.562735
0.871331
-0.355214
-0.352865
-0.731698
1.08522
0.454383
-0.0466442
0.108545
0.497514
0.783912
0.0508267
0.331536
0.0754065
-0.353054
-0.364336
-0.0575908
-0.331338
0.140302
0.0718789
-1.289
-1.42204
0.128493
0.8094
0.745055
0.51128
0.586836
0.902262
0.0965688
0.934339
0.027108
0.268165
0.0256766
-0.213884
0.787292
0.221634
0.689327
0.282258
0.448009
-0.54904
-0.339308
0.293168
-0.116532
0.204879
-0.27471
-0.135314
-0.206861
-0.393707
-1.67382
-1.92816
0.795052
1.13085
0.586648
0.414225
1.08344
0.184264
1.52955
-0.508545
0.677887
-0.293827
-0.332518
-0.216831
0.164802
0.229077
0.021283
-0.502795
0.556703
0.602294
0.260861
-0.0112998
0.0706212
0.444063
-0.026427
0.366404
0.134321
-0.0960341
-2.58027
-1.08642
1.09559
1.23826
0.565376
0.955558
0.952961
0.788294
0.00246585
0.883236
0.250936
-0.08558
-0.156409
0.286911
-0.110377
-0.562435
1.15294
-0.175171
-1.09321
0.166861
-0.449542
0.030744
0.299378
0.198801
-0.584115
0.212089
0.707574
-1.56185
-2.31887
-0.460752
2.07567
1.35759
0.216093
1.02111
0.135083
-0.190079
0.318044
-0.38516
-0.252262
0.0921406
0.104171
0.283719
-0.225165
-0.145572
-1.44852
0.321759
0.756882
0.132435
0.0103844
0.646995
-0.0216777
-0.0639076
-0.319866
0.865129
-0.78126
-1.11364
-2.80177
-0.072879
1.92937
1.1643
0.138732
0.161725
0.881079
0.505902
0.484941
0.901723
-0.080673
-0.459992
-0.989268
0.342425
0.408997
0.211084
0.212894
0.141743
-0.679204
0.0665237
0.0159338
0.227142
-0.575063
0.63574
-0.230935
-0.144037
0.215375
-3.38887
-1.41752
0.741161
1.90999
1.04739
0.304634
1.29616
-0.173077
-0.160385
0.410263
-0.118073
0.410627
0.282463
-0.914468
0.792124
0.514649
-0.484231
0.190259
0.419379
0.205304
-0.398793
0.277137
-0.231308
0.0915539
-0.561222
0.238002
-0.540972
-1.55984
-2.60307
-0.788797
0.538032
1.71943
0.787607
0.417949
0.053532
0.49151
0.859583
-0.747538
0.647984
0.0233163
0.42811
0.192056
0.498216
-0.637874
-0.479924
-0.583151
-0.483251
-0.258648
0.382042
-0.265127
0.337259
0.478016
0.467665
-0.0636137
-1.95379
-1.38512
-1.82562
-0.278747
0.958998
0.801132
1.21824
0.906114
0.952959
0.628116
0.561777
0.445295
0.0941095
-0.942398
-0.650189
-0.0396807
-0.747818
-0.0649475
-0.09729
-0.500317
0.385996
0.0687598
-0.27496
-0.410186
-0.0511333
0.445731
-0.403383
-0.829858
-0.882331
-1.685
-1.60946
-0.126105
0.521702
0.883114
-0.249252
1.07258
0.123681
0.674354
0.347974
-0.459314
0.480867
-0.233885
0.747679
0.424968
0.425044
-0.115012
0.210071
0.373364
-0.336358
-0.0598896
1.36019
-0.173189
0.820455
-0.409602
-1.25413
-2.19944
-2.04712
-0.512956
-0.856695
-0.194426
0.520569
0.64297
1.36718
0.160432
0.562617
0.0067463
0.917837
0.557942
-0.0705936
0.923997
0.357316
0.125541
0.786111
0.622657
-0.0571865
-0.699838
-0.913155
-0.878295
-0.545928
-0.0922036
-0.966226
-2.32893
-2.42921
-0.933422
-0.972597
-0.493395
-0.293798
-0.72175
0.035866
-0.299312
-0.0147184
0.281102
0.0739605
-0.141109
0.786413
-0.530027
-0.147346
1.00514
0.763432
1.01494
-0.38621
0.457338
-0.499207
-0.143027
-0.263546
-1.30012
-0.374123
-2.71783
-3.42353
-3.27419
-2.30893
-1.35593
-1.16813
-0.559581
-0.261754
-0.348044
0.349938
-0.518009
0.289563
0.297578
0.13761
-0.691408
0.185506
0.429911
0.290015
0.969416
-0.0274089
1.24901
0.238286
0.992376
-1.93936
-1.51321
-1.0699
-2.16968
-2.55463
-2.85208
-3.98635
-2.20271
-0.209332
-0.347791
0.0473295
-0.292365
0.0122926
0.280515
-0.533714
0.839006
-0.601259
-0.0632251
0.21672
0.589754
-0.15821
0.341595
-0.0025631
0.51435
0.274746
1.9865
-0.34147
-0.689466
-0.158778
-0.907071
-1.08038
-2.65443
-2.59631
-1.96765
-2.26367
0.225086
1.13576
-0.188556
-0.0695084
-0.580627
-0.253624
-0.42742
-0.0671928
0.0826269
0.825911
-0.0221659
0.0840015
0.0761217
0.0327626
0.617757
1.7478
1.87809
0.774321
-0.276006
1.26061
0.230773
-0.521956
-0.796626
-1.35449
-1.65012
-1.87152
-1.63192
-0.653749
-0.272063
-0.0456892
-0.107777
0.0732458
-0.116152
-0.404995
0.530157
-0.491854
-0.195247
0.446658
0.36349
0.918429
1.3763
0.25079
1.46745
-0.307919
1.04185
0.521158
0.363998
0.746991
1.205
0.0793777
0.179226
-0.450767
0.60644
0.222722
0.317809
0.686345
1.37664
1.10956
0.314942
0.367704
-0.446482
0.352786
-0.314895
0.87576
0.238348
-0.0965475
1.23795
0.557413
0.441071
1.01844
0.908474
0.229559
0.774679
0.987276
0.72898
Bias: 
-2.28493

Neuron 1
Weights: 
-0.811324
-0.881516
-0.469301
-0.824335
-0.838485
-1.04526
-0.240786
-0.804592
-0.089272
-0.0783647
-0.094126
0.166015
-0.0425199
0.0434422
-0.0950222
-0.0938521
-0.149123
-0.62571
-0.553674
-0.717947
-0.872393
-1.14285
-0.73547
-0.952002
-1.2687
-0.821397
-0.754886
-1.06546
-0.765908
-0.478051
-0.572561
-0.517244
-0.993819
-0.720979
-0.699929
-0.256093
0.185503
0.0935215
-0.0821837
-0.133127
-0.303855
-0.325544
0.0560885
-0.371722
0.0137321
0.017407
-0.464227
-0.0977163
-0.207423
-0.65169
-0.427015
-0.400359
-0.440971
-1.09591
-0.89627
-0.708426
-0.95434
-0.729523
-0.348725
-0.598225
-0.107297
-0.274879
0.188341
-0.0894632
0.01349
0.201493
0.322862
-0.25982
0.277508
0.108585
-0.422624
0.445563
-0.753467
-0.0871799
-0.189857
-0.282307
-0.319737
-0.00248644
-0.333523
-0.0268621
-0.536609
-0.917633
-1.39356
-0.689864
-0.937541
-0.170542
-0.391109
-0.0392558
0.419874
0.00623049
-0.0265293
0.0212365
0.0623345
-0.31445
0.203782
0.0256886
-0.0678292
-0.00907826
0.127909
-0.292645
0.146714
-0.377678
-0.624261
-0.153605
-0.566804
-0.353812
-0.543078
-0.87134
-0.752843
-1.12718
-0.98132
-0.961515
-0.401321
-0.410514
-0.195198
0.0115533
0.488775
0.139593
-0.0160872
-0.135871
0.265593
-0.186416
-0.0331651
0.334684
-0.167263
0.103056
-0.0146766
-0.0468768
-0.62685
-0.338273
-0.345369
-0.326203
-0.79923
-0.572116
-0.848201
-0.599756
-0.366626
-0.115916
-0.131664
-0.349319
-0.381316
-0.346135
0.246081
0.448309
-0.062328
-0.338787
0.100144
-0.212502
-0.310645
0.0644834
-0.167658
-0.200217
-0.502992
-0.242117
-0.603075
-0.62167
-0.56057
-0.393809
-0.970926
-0.498609
-0.575985
-0.750612
-0.242176
0.0506996
0.465173
0.75454
1.01241
0.0677184
-0.452738
-0.334972
0.527039
0.112952
0.517831
0.17001
0.285796
-0.448482
0.403552
-0.256953
-0.0692092
-0.0773787
-0.209725
-0.394713
-0.134073
-0.284657
-0.505403
-0.148236
-0.260791
0.0143229
0.807329
1.52356
2.28249
2.49474
2.36058
2.75295
1.54579
0.233265
-0.889387
-0.0638602
0.119008
0.107126
0.0259482
0.0767666
0.103147
0.182473
-0.373686
0.13866
-0.286493
0.379857
-0.161597
0.825115
0.740963
1.99948
2.4003
3.72307
4.51097
5.04878
5.69318
4.71201
4.9309
3.5952
3.41824
2.22927
1.78505
0.689368
-0.653162
-0.355346
0.139277
-0.119173
-0.15575
-0.244532
0.0928879
-0.256412
0.296943
-0.0845234
0.488277
0.540425
0.701313
0.846721
0.677281
0.757034
0.70219
0.889474
0.635026
0.678736
0.77056
0.556856
0.942116
1.00595
0.647557
0.735025
1.06615
0.231778
-0.801352
-0.28715
-0.59707
-0.230413
-0.0322621
-0.194337
-0.155624
-0.230127
-0.00812073
0.230406
-0.101868
0.263538
0.0281024
0.011377
0.641902
0.295581
0.533867
0.111653
0.511643
0.329377
0.280018
0.323056
0.276893
-0.262868
0.693241
0.16211
-0.310264
-0.533269
-0.500984
-0.343152
-0.132488
-0.377421
-0.48174
-0.234301
-0.162657
-0.177051
0.0216063
-0.171239
-0.0856005
-0.126112
-0.0762982
0.0631037
-0.294935
-0.155878
-0.298022
-0.042081
-0.334696
-0.113931
0.00952341
-0.257634
-0.353956
-0.612409
-0.494539
-0.289637
0.324188
-0.0530938
-0.739002
0.0312033
-0.13014
-0.117135
0.193373
0.0999081
0.0684461
0.112365
0.214811
-0.00997873
-0.0990637
0.0391078
-0.00667186
-0.0553616
0.125892
-0.146427
-0.129966
-0.362124
-0.336102
-0.267046
-0.440392
-0.753837
-0.799887
0.0676313
-0.471541
-0.433583
-0.161561
-0.558111
-0.321442
-0.267596
0.413867
-0.412132
-0.492954
0.199264
-0.298895
0.220798
0.0603256
-0.0794669
0.16636
-0.305959
-0.184213
0.00365285
-0.210361
-0.110372
0.0108454
-0.0881845
-0.233272
0.0109097
-0.506243
-0.09529
-0.252394
-0.738997
-0.143285
-0.147549
-0.192166
-0.556604
-0.472302
-0.232048
0.0265836
0.155458
0.168026
0.355743
0.00279025
-0.140371
0.0501717
-0.0899821
-0.139225
-0.00607552
-0.293303
-0.225623
-0.224142
-0.321838
-0.374408
-0.342337
-0.126734
-0.753482
-0.0358379
-0.672094
-0.167873
0.00733868
-0.0982864
0.0683764
-0.18244
-0.4867
-0.625839
0.0237897
-0.239258
-0.0264471
-0.297033
-0.219136
-0.074818
-0.14292
-0.15337
0.0148984
0.0728186
-0.122005
-0.0589314
-0.051211
-0.136224
-0.0247038
-0.00924262
-0.0752004
-0.182391
0.183779
-0.197909
0.110099
-0.086684
-0.00707905
-0.256252
-0.423662
-0.319446
-0.391638
0.0586223
-0.0901901
0.262508
-0.101052
-0.154725
0.210105
-0.134274
0.0825665
0.111883
-0.179225
0.285934
0.0783657
0.0922481
-0.170576
0.188167
0.0404345
0.119336
0.130837
0.214764
0.324909
0.263293
0.138316
0.209904
-0.00363363
0.183885
-0.129145
-0.544016
-0.0994903
-0.526037
0.20489
0.217047
0.0235322
0.148555
0.0453738
-0.175782
0.0881893
-0.150419
0.291198
-0.0706097
0.0724732
0.381353
0.0734986
-0.0154166
0.262656
0.349155
0.096342
0.129691
0.254635
0.321377
0.296705
0.350844
-0.088196
0.155403
-0.155186
-0.233861
-0.179825
0.138137
0.292843
0.171843
-0.254277
-0.0289181
0.119789
0.0315003
-0.186663
0.0508443
-0.109735
0.226277
-0.109381
-0.00788913
-0.0189889
0.0996723
0.091603
-0.101779
-0.121751
0.205665
-0.10442
0.143392
-0.210208
0.170877
-0.154119
0.522757
-0.117056
0.314658
-0.485394
-0.123606
-0.228138
-0.0488707
0.222011
0.112202
0.21908
-0.14436
0.159927
0.173487
-0.0314328
0.227237
-0.0101713
0.0460268
-0.00909151
0.220464
0.124854
0.117895
0.110342
-0.0823067
0.0252206
-0.145855
-0.146723
-0.0495597
0.162816
0.0834523
0.280106
0.534795
-0.580099
-0.102161
-0.227562
0.0810463
-0.133075
0.170118
-0.129615
0.337081
0.191418
0.167882
-0.0305614
-0.166584
-0.0725992
0.124542
-0.152734
-0.13964
0.182082
-0.0895479
-0.313439
0.12151
-0.202171
0.248032
-0.0912219
0.103488
0.096911
0.399214
0.278964
0.261493
-0.477395
-0.391107
-0.0295308
0.0572825
-0.208445
0.285977
0.0141112
0.128176
-0.237691
0.25618
0.0448645
0.00872897
0.0175366
-0.0760717
0.00183952
0.0373106
-0.402973
-0.0260513
-0.0202504
-0.0334228
0.191
-0.189447
0.388532
0.17856
0.506934
-0.0576716
0.54586
0.17687
-0.52929
0.0134599
0.291603
0.115412
0.0349898
-0.145127
0.492914
-0.0166664
0.451474
-0.110893
0.127921
-0.123635
0.341392
-0.120053
0.0692333
0.0930173
0.146092
-0.15758
0.264016
-0.165186
0.260106
0.186376
0.169846
-0.0470537
0.167518
0.209742
0.361615
-0.229114
-0.412136
-0.00430344
0.0691602
0.0778137
0.28215
0.518658
0.109103
0.164407
0.0814917
0.114057
0.336883
0.133684
0.0528539
0.145743
0.274456
-0.0659034
0.225257
0.00512288
-0.0458677
0.268221
-0.202672
-0.0581232
0.267968
0.464912
0.0763412
0.271776
-0.239648
-0.743858
-0.627923
0.33497
0.196457
0.0922355
0.331173
0.210058
-0.260003
0.333021
0.396609
-0.129238
0.329744
0.117064
-0.270782
-0.0420969
0.0576612
-0.0339065
-0.0353499
-0.245502
0.450296
-0.123836
0.396845
0.309524
0.0457474
0.076364
0.604392
0.0836546
-0.0572393
-0.330271
-0.57426
0.200504
0.219874
0.0484278
0.215672
0.166624
0.21615
-0.181811
0.250794
0.026386
-0.0351891
0.385019
0.243086
-0.0658984
0.149486
0.0363596
0.368356
0.223405
0.277131
0.288792
0.218959
0.55287
0.554154
0.325399
0.271464
-0.117093
-0.37696
-0.372209
-0.443945
0.140683
0.191258
0.110108
0.0345599
0.255189
-0.085552
0.25339
0.0552058
0.0220501
0.325569
-0.0198061
0.14097
0.353109
-0.0298932
0.23876
0.0845337
0.505706
-0.0513075
0.861196
0.0550369
0.232347
0.159439
-0.182884
0.431162
-0.344653
-0.559119
-0.71551
-0.528249
-0.0995301
0.223031
0.287797
-0.189466
-0.0587637
0.0725345
-0.0896
-0.0487314
0.318907
-0.0736186
0.375284
-0.103241
0.432744
-0.150109
0.629057
0.0874082
-0.058141
0.361452
-0.224444
0.44487
-0.257455
-0.335368
-0.142898
-0.547776
-0.621769
-0.960625
-0.839784
-0.812163
-0.511298
-0.400461
0.163622
0.0241296
0.13051
-0.0351849
0.153341
0.245765
-0.0331978
0.367947
-0.154111
0.0959666
0.200734
0.210372
0.0177176
-0.262696
-0.0480398
-0.195507
-0.522484
-0.154993
-0.277524
-0.597269
-0.0416108
-0.802525
-0.801362
-0.694086
-0.54266
-0.748237
Bias: 
0.636592

Neuron 2
Weights: 
1.11673
0.294533
0.197967
0.463799
-0.141518
0.556458
-0.205244
0.807861
0.366001
0.613378
0.162414
-0.317402
-0.603801
-0.88923
-1.60372
-2.64193
-0.872736
0.190938
0.478473
1.52944
2.58515
1.28976
1.76784
1.74808
0.889239
0.270509
0.567085
1.00297
-0.113101
0.0500769
0.517082
0.541876
0.121672
1.17563
-0.00312174
1.32848
0.894522
0.734943
0.356341
0.775014
-0.650993
-0.642002
-1.78226
-2.59215
-1.52139
-0.540005
0.937209
1.97155
1.92541
3.37292
2.82746
2.37649
1.57075
1.22662
0.270925
0.500995
-0.324414
-0.104912
0.214919
0.175478
0.583738
-0.368785
0.829596
1.47364
-0.150631
0.879799
0.771423
0.0740883
0.564387
-0.0453229
-0.825029
-1.72014
-2.74194
-1.53913
-0.923399
0.0674608
1.33446
1.60782
2.31063
2.11066
1.24293
1.53808
0.631642
0.266324
0.311532
0.732108
0.0792908
-0.205346
0.339802
0.926818
0.405688
-0.139757
1.33109
0.520784
0.118772
1.55489
0.238342
0.311575
0.105526
-0.872345
-2.67076
-4.29682
-1.88898
0.345345
0.588286
1.77712
0.652124
1.63841
1.49487
1.07655
0.093977
-0.255003
-0.298781
0.836494
1.1982
0.690104
0.832711
-0.0393806
0.487134
0.279861
-0.260592
0.508408
0.857544
0.237809
0.360993
0.830206
-0.540568
-1.5564
-3.14468
-4.15792
-2.66544
0.164049
0.417693
0.523215
1.0885
0.745786
0.804178
0.983377
-0.147477
0.227059
0.683004
0.11547
1.09963
0.0131201
1.26492
-0.00839933
0.33617
0.504906
0.0950377
0.00499519
-0.735074
0.752888
0.0731743
0.433184
-0.154409
-0.957444
-2.36028
-3.92191
-3.10736
-0.111254
0.63115
0.688832
1.01814
1.2588
0.689967
0.437014
0.210498
-0.13454
-0.0893463
0.694209
0.924864
-0.645492
0.131906
0.277776
0.0883649
-0.223741
-0.885753
0.809264
-0.396831
-0.822559
0.453121
0.763419
0.347261
-0.781507
-1.9429
-4.23094
-3.7186
0.372228
2.00094
0.725038
-0.28812
0.428569
0.121655
0.118237
-0.326395
-0.950357
0.80003
0.937784
0.701104
0.305611
0.245485
0.317541
0.754571
0.234653
0.0697923
0.146226
0.214653
0.170338
0.336959
0.975717
0.820561
-0.446169
-0.863744
-4.68338
-3.04989
0.562468
1.07469
0.196378
0.625939
0.577788
0.51106
-0.0540618
0.0194026
-0.761559
0.381541
0.302455
0.919089
0.134976
0.0970449
-0.709461
-0.54128
-0.797823
0.222621
0.45326
0.247471
0.220155
0.614843
0.64979
0.0030004
0.371782
-1.40234
-4.77177
-2.05609
0.866927
0.905814
0.368279
0.475071
0.0361125
0.398518
0.0426662
-0.1449
-1.69706
0.74275
0.414232
0.423013
-0.0231136
-0.537134
-0.0203258
0.140862
-0.902556
-0.789545
0.442569
0.789011
0.618666
0.541561
0.720346
0.379354
0.259415
-0.777935
-4.24864
-2.07327
1.57985
1.15996
0.171483
1.07949
0.601779
0.257209
-0.810834
-1.09164
-1.19165
1.08322
0.264415
0.790167
-0.441022
0.294444
-1.11247
-0.827564
-0.00347589
-0.78432
-0.183643
0.265678
0.487559
0.443772
0.643574
-0.134156
0.38561
-1.19373
-4.10582
-0.435021
0.781886
0.407884
0.113898
-0.00538414
0.533213
-0.181593
-0.326031
-0.712945
-2.09542
-0.426825
0.224001
0.908457
-0.619181
-1.02408
-0.0355961
-0.742376
-0.812187
-0.367795
-0.347746
0.301266
0.762166
0.767143
0.283604
0.181415
0.692296
-1.33581
-3.72013
0.310882
0.850055
0.839115
-0.019932
0.531397
-0.215396
0.105021
-0.289719
-1.26616
-0.682895
0.269297
-0.45662
-0.928628
-0.587878
-0.0887418
-0.647279
0.243429
-0.432843
-0.533103
-0.0870471
-0.524377
-0.00946089
0.465288
0.185047
0.167495
0.050519
-2.12151
-2.40435
1.07192
0.555536
0.181832
0.0242778
0.374368
0.447424
-0.28783
-0.997067
-1.43396
-0.497694
0.172705
-0.633272
-0.782034
-1.12429
0.0679388
-0.368328
-0.888628
-0.155265
-0.677909
-0.441738
0.713454
-0.0326063
0.0389525
0.119752
0.418624
-0.680217
-1.29818
-0.139566
0.600257
0.646933
-0.249223
0.360138
-0.0352528
0.0761185
-0.109077
-1.19735
-1.67063
-0.63803
-0.515976
-0.662252
-0.607858
-0.688137
0.418033
-0.188225
-0.366297
0.815632
-0.00262507
0.0565383
-0.413078
0.183679
0.0646189
-0.0591925
-0.741025
-1.35244
-0.537585
-0.249248
0.381581
0.683141
0.663669
0.329266
0.548436
0.0969073
-0.541032
-1.6084
-0.810452
-0.480896
0.435625
-0.872127
-0.324695
0.399571
-0.138129
-0.147507
0.260569
-0.85363
-0.454257
-0.442588
0.0691296
-0.667071
-0.0757693
-0.411992
-0.663939
-0.00722489
-0.32423
0.750149
0.433372
-0.169335
-0.0650804
-0.0640281
0.765684
-0.0455486
-0.703263
-1.87557
-0.653192
0.15658
0.0928733
0.201718
0.0253955
0.321392
0.729859
-0.0292502
-0.0149541
0.0851349
0.0142781
-0.241172
-0.0250284
-0.221251
-0.259458
-0.440018
-0.178765
-0.309281
0.231075
-0.103088
0.286223
0.08644
0.250169
0.0393845
0.36158
0.691183
-0.487198
-1.77725
-0.713263
-0.316149
0.492638
0.961838
0.965035
0.175346
0.745632
0.224853
0.560481
0.0327931
-0.351049
-0.404508
-0.796452
0.132501
-0.351735
-0.43179
0.285447
-0.169198
0.35334
0.191484
-0.2397
-0.0908435
-0.419221
0.268917
-0.527923
-0.727914
-0.769888
-0.688001
-0.00826031
-0.904327
0.755423
0.43914
1.20804
0.918537
0.531374
0.444797
0.0319751
-0.452788
-0.390691
-0.55983
-0.0476099
-0.277348
-0.0938192
-0.0454256
-0.483669
0.578852
-0.0926698
0.131297
-0.163104
0.133751
0.298476
0.0589632
0.567438
0.286911
0.381325
-0.512745
0.0337361
0.512156
0.482916
0.447683
0.467783
0.569088
0.517135
-0.33336
0.10531
-0.167303
-0.405706
-0.386781
0.012859
0.0288555
0.412669
0.320615
0.319486
-0.0264795
-0.20626
0.223061
0.00648112
-0.0130834
0.735455
0.275144
0.456146
0.721855
-1.05766
-0.513328
0.689656
0.245938
0.206214
0.36975
0.415122
0.671744
-0.573265
0.142137
-0.632314
-0.0141164
-0.22399
-0.332423
0.267617
0.0977123
0.0548476
0.259244
-0.0163818
-0.171546
-0.0548799
-0.122104
-0.144431
-0.140191
-0.342874
0.533278
-0.693532
0.156678
0.304112
0.0338762
0.613633
1.09988
-0.182186
0.589021
0.435585
0.192222
0.483061
-0.0025561
0.358756
-0.500935
0.290311
0.00510017
0.209106
0.168404
0.459365
0.237518
-0.119201
0.38209
-0.0289673
0.45988
0.267014
0.360147
0.144187
0.111976
-0.0968106
-0.228449
0.372679
0.639636
-0.00192469
0.146625
0.398629
-0.0271336
0.0682222
-0.0168154
-0.100015
-0.0584391
0.297317
-0.104764
-0.0154505
0.0425515
0.457488
-0.0877996
-0.0782445
0.474992
0.484257
0.1686
0.575112
0.180706
0.596139
0.515281
-0.156344
0.539712
-0.150937
0.373834
-0.229054
0.185082
0.0906733
0.361277
-0.043094
0.369058
0.1349
-0.100867
0.18115
0.291756
0.0312492
-0.00550013
0.785103
-0.36503
0.270953
0.458594
0.213271
0.224698
0.264815
0.356816
0.446575
0.18219
-0.216658
0.788409
0.241597
0.163213
0.537051
0.76159
0.267681
0.581196
0.333561
0.252204
0.236299
0.199323
-0.470866
0.175228
-0.0215293
0.414279
0.372217
0.375965
-0.0318436
-0.306804
0.0495752
-0.0474885
0.301184
-0.0389208
-0.103497
0.125463
-0.12845
0.5085
0.533921
0.0263754
0.528989
-0.0540941
0.19112
-0.493925
0.155815
0.157203
0.197113
0.908815
0.339207
-0.310546
0.54985
0.251931
-0.0303088
0.357049
0.331216
-0.152548
0.339025
0.173786
0.282927
-0.312282
0.309906
0.219743
0.420397
0.619642
0.323475
-0.246553
0.306735
0.247109
0.181146
0.113866
-0.24006
0.920526
-0.438525
0.562541
-0.243239
0.193966
1.06674
-0.238438
-0.159258
-0.075838
0.168733
0.139431
0.0917713
0.0104992
0.24609
-0.197657
0.331242
0.245149
-0.00587067
-0.0913471
-0.016445
-0.457956
0.548023
0.125748
0.432034
0.783242
-0.74563
0.12732
0.508028
-0.151039
0.337828
-0.252934
0.593717
0.217564
-0.0946153
0.249994
0.200972
0.201093
0.268896
-0.0543304
0.374108
0.0722732
-0.208522
0.659635
0.309981
-0.294646
0.524705
-0.538838
0.0798443
-0.432394
-0.359532
-0.614279
-0.498856
-1.15942
-0.45436
0.0108484
-0.235877
0.164788
0.202732
0.401348
-0.121977
0.515207
Bias: 
-2.41172

Neuron 3
Weights: 
1.68699
1.36002
1.63254
1.54238
1.74435
1.37193
1.52891
1.21232
0.564311
0.812757
-0.347968
0.926652
-0.817471
0.232025
-0.196596
-0.583924
-0.374599
-0.411313
-0.250431
-0.141958
-0.172638
-0.517025
0.066407
0.359988
0.320808
1.40485
0.550731
1.47516
1.65186
1.52864
1.08384
1.40835
1.30642
0.80191
-0.411299
0.394786
0.19959
-0.64313
-1.10394
0.583011
-1.03009
0.330146
0.0416039
-0.309283
-0.320596
-0.207246
-0.498346
0.290746
-0.62052
-0.182638
0.325223
-0.978773
-0.692051
1.3814
0.931742
1.40622
1.89384
1.16032
1.03991
1.35052
0.735776
0.690438
0.465653
-0.425439
0.0537268
0.258246
-0.227736
-0.0303552
-0.540458
-0.37533
0.114987
0.224245
0.219524
0.0726787
0.0209288
-0.641353
-1.29625
-0.510847
-0.0895334
-0.250387
0.244008
0.084944
1.45782
1.30709
1.32814
1.24818
1.20798
1.15595
0.0252909
-0.20581
0.102693
0.481456
0.415537
-0.276742
0.295487
0.668283
-0.712878
-0.708405
-0.314088
0.309787
-0.204387
-0.541247
-0.686617
-0.264465
-0.375172
-0.550513
-0.65347
-0.784454
-0.521538
0.348325
1.07476
2.12681
1.39976
1.34421
0.90313
0.417195
-0.276426
-0.520672
-1.58768
0.103355
-1.30543
1.33357
0.501583
-0.330899
-0.462848
-1.00257
-0.144121
-0.0113002
-0.701897
-0.0997647
-0.290992
-0.33475
0.0177561
0.0403157
0.0582746
-0.697426
-0.598199
-0.204215
1.62195
1.69859
1.56644
0.996412
0.203
0.0456703
-1.17707
-0.262041
-1.13207
-0.500951
-0.982858
0.613373
-0.415276
0.988448
-0.631568
-1.43263
-0.285912
-0.174713
0.0982631
-0.446396
-0.340848
-0.612232
0.298317
-0.205522
-0.0609379
-0.141138
0.157668
-0.190982
1.90153
2.07637
1.37198
0.702413
-0.153916
-1.59841
-0.671813
-1.52187
0.0389625
-1.20615
-0.0327378
0.515687
0.689249
0.633614
0.0445352
-1.61012
-0.538801
-0.29475
-0.819327
-0.126047
-0.532872
-0.148489
-0.2626
0.00924443
-0.265288
-0.134902
0.247437
0.542066
1.9923
2.49131
0.761405
0.496047
-0.116891
-0.79105
-0.288033
-1.44225
-0.664112
-0.280497
-1.26474
-0.544785
-0.478754
-0.313061
-0.999029
-2.55595
-0.682678
-0.447446
-0.162112
-0.0953299
-0.142147
0.0741794
0.0130378
-0.106583
0.140872
0.338835
-0.0439623
-0.354221
3.04338
2.00206
0.602131
0.938063
0.40039
0.276008
-0.609376
-0.722658
-1.296
-0.90947
-0.807209
-0.418411
0.53287
0.769162
0.279352
-3.64238
-1.65362
-0.459456
-0.680629
0.0354275
0.243967
-0.189411
-0.216896
0.377656
-0.876624
0.431626
-0.341305
1.59678
1.50843
1.29292
1.37913
1.64313
1.63128
0.95205
0.85566
0.434609
0.395834
-0.163547
1.01961
1.60361
2.86071
3.21298
3.06793
-2.22456
-2.72656
-0.160246
-0.309344
0.0695412
0.421759
0.254756
-0.306829
0.0697953
-0.432096
0.329502
0.913156
-0.0402455
2.06455
1.47136
1.18039
1.34827
2.80507
1.89889
1.77099
1.57992
2.80217
2.88949
4.19937
4.30609
1.78391
3.24876
3.89908
-0.186745
-1.64454
-0.370139
-0.122648
-0.546751
-0.323244
-0.655812
-0.042006
0.532106
-0.563128
0.213238
-0.122225
0.557713
0.711513
0.843618
1.91309
2.03264
1.93715
3.72244
3.56071
5.65249
5.20176
5.38988
2.82785
1.20462
0.482904
0.239951
1.72067
0.782693
-0.966094
-0.0626238
-0.228489
-0.17874
0.447871
0.0136237
-0.326881
-0.109012
0.51111
-0.171585
0.77411
1.11904
0.368167
0.163151
1.94
2.21564
2.12832
3.25029
4.34304
3.09014
2.49745
0.711951
-0.0990669
-0.18898
-0.0131854
0.115364
1.36933
0.428043
-0.225678
0.145461
-0.500278
-0.213508
-0.892558
0.0809151
-0.503672
-0.14787
-0.00554854
0.458071
0.543693
-0.455094
-0.308768
0.480643
1.64838
1.30227
0.964055
0.643494
0.363035
-0.283719
-1.48352
-1.47329
-0.74639
-0.396041
0.230549
0.285143
0.553245
0.584478
-0.139509
0.597312
-0.573019
0.125051
-0.0538103
-0.164308
0.573445
0.0148293
0.862522
-0.266553
-0.0940241
-0.242408
0.155816
0.692617
1.68139
0.485231
0.679425
-0.293828
-0.907552
-1.74983
0.522979
-0.688205
0.569763
0.292011
0.383755
0.110762
0.221654
0.653468
-0.316086
-0.120315
0.163607
-0.284702
0.185719
0.103025
0.166279
0.102232
0.584338
-0.0582159
-0.403509
0.407322
-0.37218
-0.580094
1.42203
0.0437397
-0.817031
-0.16744
-0.612524
0.0348305
0.0245596
-0.258311
0.0359525
0.0566971
-0.145339
-0.0534855
0.567086
-0.0260624
0.152502
0.205438
-0.477038
0.510968
0.665467
-0.358278
0.2233
0.454074
0.540447
-0.0612607
-0.349526
-0.264807
0.559922
-1.1058
0.396649
-0.0681404
-0.269174
0.0616219
0.707108
-0.11663
0.884376
0.130958
0.405049
0.17088
0.459399
0.236312
0.0746398
0.482925
0.0293784
-0.241699
0.0520532
0.188468
-0.0368859
-0.0999139
0.0364296
-0.413184
0.157542
-0.868403
0.354259
-0.817066
-0.254547
0.487186
-0.877559
-1.35771
-0.0059536
-0.149141
0.030602
-0.00717898
0.720548
0.59745
0.173057
0.257552
-0.442216
0.32131
-0.067408
0.428346
-0.444681
0.0734769
-0.126813
-0.128155
0.464345
0.391599
0.0201839
-0.056843
-0.28155
-0.165782
0.187329
-0.979085
0.0297499
-0.191461
-0.343687
0.0100687
0.649912
0.204422
0.0655225
0.232484
-0.186765
-0.484037
-0.179882
-0.0387033
-0.0479859
-0.274478
-0.233201
-0.150052
-0.231515
-0.443775
0.714749
0.0311103
-0.0305425
-0.688486
-0.807029
-0.543228
-0.133076
0.110851
-0.91534
-0.468213
-0.186445
-0.6557
-0.614147
-0.207348
0.515941
0.137243
0.0360274
0.587695
-0.351615
0.340748
-0.352901
-0.0897032
-0.366982
0.0964819
-0.427887
0.293995
0.557487
-0.174671
0.0633505
0.352538
-0.0914293
0.158894
-0.0677227
-0.392922
-0.298715
-0.189152
-0.0434337
0.660056
0.386922
0.497488
-0.825615
0.0730206
-0.355777
-0.281619
-0.153021
-0.850228
-0.261692
-0.565622
-0.164473
0.441243
0.0728134
-0.111345
0.0562749
-0.391585
-0.0553458
0.534747
-0.148993
0.270102
0.194776
0.0396128
0.649474
-0.300036
0.650556
-0.905119
-0.182641
0.215406
0.379506
0.987101
-0.187918
0.0839013
-0.217963
-0.843797
0.476909
0.0153605
0.0332886
0.340445
0.255122
0.461791
-0.0037945
-0.0712066
-0.144194
0.509565
-0.14563
-0.0133432
0.200943
-0.00928238
0.231441
0.346178
0.608721
-0.312885
-0.0776734
-0.177404
0.356162
-0.218746
-0.0523507
1.33011
0.0602635
-0.32052
-0.188088
0.506236
-0.411406
0.00203423
-0.211836
-0.230423
-0.0871972
0.037053
0.115137
-0.0104909
0.384012
-0.642987
0.863905
0.23065
-0.0741687
-0.0532476
0.12633
0.208295
-0.416403
0.369871
-0.409814
0.107222
-0.235694
-0.144958
0.404824
1.13917
0.88724
0.652271
-0.2306
0.226941
-0.559926
0.0984669
-0.607059
0.119947
0.197607
-0.158244
0.0248062
0.159466
0.0667582
-0.120927
-0.105286
-0.072824
0.817716
-0.377512
-0.00943582
-0.017051
0.567507
0.274911
0.104341
0.190933
0.134328
1.65689
1.38606
1.82233
0.968717
0.675247
-0.0951794
0.0868097
0.0564627
0.252428
-0.0102892
-0.462531
0.080404
0.0553543
-0.19398
-0.117605
0.543193
0.144261
0.553371
0.523633
0.194249
1.34427
0.0880321
-0.256316
-0.171285
0.347546
0.468516
0.85818
0.685281
1.28331
1.77824
1.60043
1.09328
0.808931
0.421534
0.0849389
0.190999
0.0831189
-0.73033
0.452184
0.0650384
-0.191321
0.0154027
0.742418
-0.28305
0.635141
-0.0401274
0.490421
0.536837
0.370768
0.375228
0.753942
0.586098
0.207451
0.465261
1.69929
1.09181
1.20803
1.65657
1.05275
0.940051
1.19341
0.255974
0.640535
-0.0486066
0.550007
0.270885
0.457626
0.570971
0.341336
0.0667219
0.291077
-0.339936
0.253102
0.502358
0.49003
0.557838
-0.302811
0.462426
0.824641
0.358723
0.461463
0.472989
0.985985
0.668153
1.62088
1.7345
0.848798
1.76526
2.13208
1.76858
0.602094
1.47339
0.831192
1.11734
0.851062
1.13956
1.10383
0.780035
1.22691
0.0202402
0.297648
-0.390533
0.349205
-0.0525067
0.232555
0.75064
1.23143
0.673848
0.851566
0.887811
1.03559
1.17806
1.44112
1.65673
1.09805
Bias: 
-1.60169

Neuron 4
Weights: 
1.94599
1.73335
1.45983
1.80626
1.48506
0.746975
2.27395
1.29027
1.53595
1.37546
1.88608
0.964436
0.817977
1.30991
0.778881
0.19766
-0.427591
0.01147
0.106746
-0.0132708
0.223826
0.701014
0.564964
0.929322
1.1999
1.19865
1.26474
1.72371
1.98169
1.48251
1.70339
2.79793
2.30238
1.42499
0.91394
1.37637
1.27909
0.687573
1.28139
-0.00956254
0.279242
0.584376
-0.268494
0.136564
-0.388523
-0.830915
0.449739
-0.581019
-1.35694
-0.0604573
0.349894
0.255804
0.810499
0.745328
1.45123
1.05825
1.03398
1.95727
2.27564
1.1918
1.36956
0.0087459
0.468903
0.413967
0.61828
0.0814394
0.978431
0.317542
0.553006
0.0540531
0.926265
0.397462
0.410615
-0.847142
-1.18106
-1.23998
-1.08242
-0.0885804
-0.440298
0.858382
0.691604
0.0263515
1.29798
2.15501
1.35718
0.960869
1.60359
0.468738
1.24432
0.991242
-0.371299
0.437877
-0.829964
-0.281666
0.393056
-0.0980523
0.442585
-0.483973
0.39014
0.0632618
-0.073529
-0.120696
-0.862583
-1.53941
-2.08033
-1.23445
-0.0534585
0.257046
0.533714
0.0839314
1.45309
0.846961
1.21017
1.13454
-0.677227
0.311003
-0.701407
-1.59649
-0.346523
-1.20131
-0.845279
-0.141986
-0.483939
-0.0412295
0.286764
-0.041767
-0.527021
0.0505941
-0.236659
0.473135
0.307715
-1.81074
-1.48723
-0.0177219
-0.79705
0.224616
0.621376
0.161765
1.07779
1.48655
1.75159
0.712882
0.313455
-1.7394
-1.5496
-1.75798
-0.651455
-0.466159
-1.01625
0.0222598
-0.440001
0.72099
-0.554419
0.110035
0.276988
-0.36213
-0.31243
-0.532875
-0.53882
-0.86119
-2.25256
-0.806777
-0.576203
0.850745
-0.235716
-0.477615
0.894653
1.18573
0.718666
0.962634
-0.151344
-0.899044
-1.06791
-1.12617
-0.704298
-0.417298
-0.26939
-0.576298
-0.275115
-0.335408
0.601655
-0.314239
-0.192096
0.496054
-0.385541
-0.610399
-1.02855
-1.00583
-2.23407
-0.0144651
-0.141114
0.536785
-0.0510363
-0.103603
0.185963
1.17393
0.169697
0.365196
-0.841396
-1.1505
-0.874176
-0.831372
-0.3171
-0.544489
0.0687308
-0.0494229
-0.139903
-0.802644
-0.000745146
-0.0437153
0.555412
-0.106195
0.342683
0.239379
-1.83468
-3.29252
-2.68046
-0.503388
-0.351596
0.991437
-0.251144
1.03008
0.473952
1.3557
1.05801
0.51907
-0.770889
0.0770548
0.0246431
0.641219
0.321716
-0.0645578
-1.22135
-0.0827035
-0.629471
0.017137
-0.721451
-0.000453963
0.396935
0.838724
0.557788
-0.52625
-0.762654
-2.61855
-3.2021
-1.32777
-0.0441895
0.92399
0.975044
0.218593
0.839187
1.49745
1.80956
0.445204
0.579258
0.91293
0.461815
0.27553
-0.102034
0.0983426
0.304839
0.0778041
-0.750676
-0.94913
0.146019
-0.162063
0.841741
0.0623001
1.26934
0.547984
-0.730439
-3.34826
-4.25169
-1.80594
-0.587124
1.54787
1.12338
0.561479
0.928556
1.19862
1.02743
1.45064
0.497799
0.964704
-0.292257
0.432262
0.433751
0.409209
0.0129308
0.477045
-0.280285
-0.53595
-0.0440847
0.105178
0.101845
0.537169
0.811019
0.783701
-0.0602209
-2.25706
-5.67766
-2.97301
-1.45335
0.405079
1.09063
1.0135
1.17424
1.85103
1.47722
1.59388
1.28374
0.0532685
1.1535
1.15862
0.157658
0.152686
0.0312204
-0.813216
0.464208
-0.374345
0.141289
0.183252
0.114918
0.446952
1.04208
0.533733
2.17049
-0.889131
-5.40857
-4.8021
-1.32601
0.529513
0.0252759
1.06978
1.76596
1.38859
1.63369
1.23349
-0.358912
-0.0794627
-0.758203
-1.06867
-0.198284
-0.203938
-0.308869
0.348545
-0.555521
-0.436798
-0.0208223
0.591559
0.41381
0.565271
1.42902
0.707108
0.7034
0.574233
-2.26865
-5.01039
-2.6909
-0.429198
1.81889
1.74777
1.32294
0.995236
1.07569
0.59129
0.914743
0.0751962
0.27934
0.1363
-0.22228
-0.014508
-0.21288
0.544084
-0.811628
0.296049
-0.223178
0.368522
0.168426
0.476397
0.449477
0.815209
0.746892
0.881617
-1.92858
-3.85786
-3.03806
0.287397
0.900964
1.20219
2.10206
0.913124
1.35195
0.922376
-0.195671
0.520648
-0.954469
0.277606
-0.574801
-0.215463
-0.426336
-0.122933
-0.199367
-0.764758
-0.220044
0.243778
0.924685
0.027007
0.782744
-0.186143
-0.393794
-0.688782
-1.2455
-2.75785
-2.3995
0.315472
1.96316
1.74167
0.666509
0.630976
0.592921
0.912183
-0.323704
-0.219811
0.178508
0.334059
-0.515096
0.304844
0.126303
-0.268858
0.0474446
-0.0609156
-0.302168
-0.091414
0.253634
0.416407
-0.699829
-0.628148
-0.116818
-0.536548
-1.85667
-2.23628
-0.912569
1.52533
0.965866
1.37479
0.727217
0.896014
1.90593
0.223694
0.513223
0.80111
0.326255
-0.20479
0.440125
-0.403786
0.205435
-0.0102039
-0.562684
-0.552741
-0.476354
0.677396
1.22181
-0.394047
-0.11894
-0.158267
-1.20207
-1.06993
-0.716252
-1.22848
0.28585
0.93176
1.15395
-0.0243469
1.16587
0.375156
1.37858
-0.0670043
0.45719
0.332947
0.833632
0.397531
0.155849
-0.252353
-0.950611
-0.275458
-0.224158
-0.488927
-0.444054
0.678076
-0.450717
0.248231
-0.236219
-0.754558
-1.30073
-1.43811
-1.73632
-0.59606
0.179038
0.480892
0.0131226
0.252482
1.11328
0.987058
0.852283
0.817455
0.283772
-0.188015
0.337302
-0.284678
0.192018
0.0302095
0.355193
-0.168324
-0.616336
-0.862334
0.291086
0.319165
0.386025
-0.246518
-0.0861977
0.415351
0.257211
-0.118251
-0.118845
0.323771
0.191016
0.45522
0.00220074
0.41071
0.534499
0.628126
0.601344
0.239583
0.841266
-0.0896476
0.74858
0.399053
0.582899
0.335175
-0.102091
-0.409243
-0.0810519
-0.086615
0.40857
0.710248
0.856176
0.2231
0.912133
0.24287
-0.253703
0.803364
0.411583
0.802975
0.365327
0.588366
-0.053929
0.467967
0.327273
0.808072
1.01882
0.652425
1.06152
0.726999
0.837735
0.614761
0.108978
0.418157
0.248004
-0.058318
-0.249004
0.373934
-0.0224001
0.551512
0.109789
0.604822
1.0071
0.663786
1.44209
0.759831
0.724475
0.732916
0.368472
-0.520516
0.125289
1.05554
0.832399
0.73866
0.331724
0.632916
-0.0440863
-0.250999
0.194783
0.00711653
-0.36622
-0.0828872
-0.599872
0.137398
0.337835
-0.395541
0.591949
-0.304342
0.468818
0.26425
0.093249
-0.130481
0.359046
0.225376
0.670749
-0.221075
1.73122
-0.501157
-0.0426968
0.234904
0.686901
0.502662
0.412404
0.546527
0.361849
0.527823
-0.200275
-0.250751
-0.285542
0.235409
0.446368
0.0104816
0.0167721
-0.304996
0.228144
0.0918646
0.00350017
-0.235121
0.804254
0.240307
0.24462
0.456476
1.04685
0.54864
-0.117016
0.990989
-0.327339
1.19557
1.30902
1.44778
0.575221
-0.231974
-0.361329
0.0184522
-0.351836
-0.330693
-0.101445
0.124973
0.249027
-0.291707
0.0940604
-0.136573
0.159547
0.356374
0.404891
0.317616
0.156772
-0.135065
0.462116
0.687619
0.515173
0.663179
0.392289
1.23215
0.541792
0.607862
1.03304
1.36272
0.864509
0.948017
0.271318
0.167808
-0.885602
0.157772
-0.346243
-0.0132072
0.13911
0.276299
-0.0147095
0.1731
-0.184426
0.207056
0.513791
-0.127977
0.436486
0.319688
-0.0345425
0.356001
0.329463
-0.0216616
0.955719
1.24283
0.668898
1.27299
0.89274
0.895061
0.822357
0.205916
-0.1601
-0.101298
-0.44159
-0.0718189
0.476122
-0.171674
0.203709
-0.0815155
-0.223318
-0.107354
-0.286588
0.297596
-0.27491
0.272969
-0.103435
-0.13262
1.23211
-0.309807
0.619528
0.796835
0.799235
0.896336
1.1463
1.44283
1.609
1.43234
1.20468
0.426791
-0.624364
0.538973
0.450615
0.210704
0.361299
0.0911144
-0.31455
0.145591
-0.812088
0.629885
-0.0364365
0.0782455
0.0783233
0.480741
-0.551691
-0.0832499
1.61322
0.142315
0.706539
1.42287
0.843269
2.07407
0.933407
1.79551
1.89493
1.53566
0.797342
1.13366
1.28369
0.413076
-0.947088
0.290515
0.20427
-0.354653
0.726704
-0.0969237
-0.0658348
0.247146
0.051883
0.826904
-0.170217
1.41026
0.708547
0.466908
2.02535
1.82604
0.919102
0.601715
1.14022
1.8362
1.51866
2.04911
1.77398
1.7405
Bias: 
-4.6269

Neuron 5
Weights: 
-1.33821
-1.23253
-1.48404
-1.08442
-1.31417
-1.03331
-0.429278
-0.816781
-0.37587
0.234748
0.341135
0.0670669
0.419448
0.391839
-0.0180204
-1.33787
-1.1842
0.158525
0.0176224
0.274329
0.313323
-0.861909
0.786831
0.218465
-0.458663
-1.4326
-1.30925
-1.61175
-1.77401
-1.38212
-0.812878
-1.70303
-1.39384
-0.54436
-0.950478
0.651641
0.362838
0.609235
0.0713093
0.33334
0.243696
0.422295
0.386579
-0.279844
-0.423473
0.69566
0.513595
-0.51249
0.46534
0.346294
1.11983
1.08198
0.373363
-0.0843579
-0.260092
-1.81101
-2.15945
-2.03824
-1.6894
-0.617268
-1.47101
-0.781645
-1.30556
0.25265
-0.0171885
0.474694
1.45379
1.85204
1.22283
0.0868453
0.557834
0.211283
0.136669
-0.758601
1.19266
-0.393198
0.713765
0.759604
0.706801
0.0508079
0.706942
-0.704824
0.635835
-0.842688
-1.09474
-0.963159
-0.544565
-0.938354
-0.915786
-0.5507
-0.335641
0.142376
-0.122189
0.0439195
-0.177979
-0.394601
1.2065
-0.170919
0.57117
-0.24845
0.0866827
1.02409
-0.700126
0.11799
0.505617
0.298509
0.697154
0.15582
0.365791
-0.272206
-0.0516715
-0.760516
-0.989884
-0.914047
-0.624135
-0.414002
-0.238235
0.208853
-0.627661
1.29228
-0.145584
0.496851
0.678665
0.599713
0.907124
-0.392795
0.644838
0.436263
0.54663
-0.353136
0.707117
-0.0693536
-0.46213
0.663808
-0.321441
0.528533
0.128761
-0.192091
-0.536182
-0.554
-1.07242
-0.890775
-0.27511
-0.210409
-0.812106
-0.204818
0.078821
-0.398259
1.00015
-0.429223
-0.260739
-0.178194
0.359357
-0.110351
0.651597
0.312324
0.123354
0.464295
-0.128324
0.709702
0.148956
-0.0994809
0.00904917
0.399889
-0.270089
0.00206823
-0.2204
-0.835023
-1.77171
-0.397416
0.184842
-0.123014
-0.242986
-0.951111
0.0814156
-0.31172
0.12414
0.134768
0.398434
0.37269
-0.0964148
0.404007
-0.152626
0.497421
0.223791
0.179794
0.934694
0.25066
-0.0172281
0.323372
-0.354516
0.289197
-0.564083
-0.0809915
-0.948512
-0.57685
-0.519985
-0.200699
-0.634459
-0.504219
-0.367041
0.786747
-0.568278
0.385544
-0.106921
-0.126867
-0.155152
0.0536221
0.0256723
0.400231
0.38337
0.194959
-0.218932
0.461105
-0.177406
0.731072
-0.408664
0.124672
-0.199224
-0.253482
-0.623378
-0.885221
-1.07474
-0.611331
-1.4301
-0.569942
-0.0487245
-0.0152786
-0.199687
-0.0344086
-0.658761
0.0777322
0.227566
-0.206582
0.431856
0.0796014
0.0178028
0.421272
-0.211736
-0.0919929
0.268617
0.226361
1.18837
1.27295
0.146478
-0.150835
-0.0764456
-0.545628
-0.281986
-1.09148
-0.90179
-1.00113
-1.19262
-0.660277
-0.105781
-0.982795
0.141111
-0.0840196
0.468169
-0.192736
0.388094
-0.228959
-0.0271407
0.245229
0.0136329
0.137631
0.330049
0.401789
-0.0581874
-0.0274739
0.96773
1.15657
0.551903
-0.921529
-0.647178
0.1148
-0.711159
-0.581969
-0.721197
-1.18392
-1.32647
-0.524961
-0.508138
0.136738
-0.673806
0.319648
-0.415175
0.0140811
-0.20031
0.493648
-0.0226909
-0.241658
0.358514
-0.142733
-0.354337
-0.122518
0.798296
0.133335
2.02467
1.81976
-0.831713
-0.599879
-0.318559
-0.524128
-1.11127
-1.00244
-0.950961
-1.18772
-1.26759
-0.390287
0.0309189
0.0617612
0.46893
0.0182033
0.33371
-0.214004
0.369123
0.191338
0.324864
0.594134
-0.222427
-0.187607
-0.506225
-0.151747
0.070428
0.953543
3.55671
1.95399
-1.15135
-1.16465
-0.771419
-0.508531
-0.354189
-0.222886
-1.35521
-0.82552
-1.41772
-0.261171
0.323423
0.144354
-0.225736
-0.300485
-0.0499901
0.0572714
-0.104477
-0.097345
0.589999
-0.239637
-0.259894
-0.455142
-0.445132
0.209651
-0.358481
2.47631
5.63894
0.319869
-2.43619
-0.761572
-0.754121
-0.984333
-0.930418
-1.0734
0.0235645
-1.0979
-1.36752
-1.3789
-0.17066
0.532115
-0.0789862
0.24454
-0.26285
0.110074
0.196347
-0.182235
0.167423
0.148585
-0.388624
-0.723259
-0.847099
-1.25012
0.880297
4.2747
5.08382
-0.967485
-1.05513
-1.96735
-0.634001
-0.23555
-0.771307
-0.830041
-0.621009
-0.590831
-0.969693
-0.627979
-0.53821
0.140488
0.345717
0.217481
0.286026
-0.140369
-0.178981
0.317247
-0.0714161
-0.211472
-0.0683129
-0.975385
-1.29256
0.31079
1.61438
4.30026
4.19352
-2.01279
-1.76161
-0.381731
-0.724026
-1.01512
-0.651071
0.356502
-0.513818
-0.381658
-0.953672
-0.200365
-0.581945
-0.235585
0.181767
0.187431
-0.526958
0.400825
0.378533
0.00234366
0.417014
-0.286127
-0.776169
-0.817178
-0.374264
-0.527843
2.59836
4.76418
1.73949
-1.26619
-2.45854
-0.321723
-1.25349
-0.42448
-0.736201
-0.412518
0.0266135
-0.433889
-0.547998
-0.302943
0.295541
0.61891
-0.430006
0.425832
0.238424
0.250552
0.107401
0.175424
-0.341115
-0.0873014
-0.779761
0.137507
-0.215105
0.43073
2.41342
2.18391
0.600013
-1.4502
-0.501483
0.0832094
-0.466522
0.216521
-0.192155
-0.816746
-0.778957
-0.733665
-0.173779
0.207511
0.115605
-0.631752
-0.37716
-0.277247
-0.826456
0.0597933
0.714145
-0.275187
-0.80213
-0.891631
-0.279626
0.538049
0.148502
1.56787
1.48735
0.671988
0.0591011
-1.17539
-0.440921
-0.725515
-0.108286
-1.03644
0.479851
-0.276358
0.197565
-1.25189
0.527927
-0.201832
0.564174
-0.0220682
-0.256601
0.573791
-0.432527
0.216736
-0.73443
0.0404742
-0.554024
-0.224351
0.427361
0.00332857
0.777154
0.725194
0.0897257
-0.184285
0.330485
-0.931307
-0.538836
-0.283634
-0.327699
-0.390198
-0.866834
-0.132771
0.132818
-0.588979
-0.219882
0.35646
-0.405505
0.661228
-0.106113
-0.0229173
-0.00622526
-0.165283
-0.179535
-0.841276
-0.0432896
-0.491519
-0.401528
0.443594
0.518969
0.93493
0.305578
-0.596716
0.277221
-0.591707
0.28307
-0.466764
-0.163375
-0.209415
-0.821091
-0.42785
-0.0524683
-1.03743
0.387538
-0.442287
1.60431
-0.43246
0.0947293
-0.257937
-0.348988
-0.789042
-0.0109243
-0.582778
-0.153805
-0.478255
-0.0930416
0.304098
0.692137
-0.31171
-0.508238
0.122284
-0.474633
-0.0452593
-0.351193
-0.229466
-0.680462
-0.474816
-0.497455
0.434921
-0.429576
-0.919374
0.253625
0.0523586
0.127103
-0.247171
-0.444172
-0.740301
-0.405724
0.502298
-0.26139
0.296799
-0.318992
-0.652527
-0.217256
0.339504
0.719251
0.0831139
0.0202298
0.271458
-0.943056
-0.178897
-0.0259942
0.402541
0.0161641
-0.333556
-0.975784
-0.650539
0.206678
-0.693362
0.22828
0.00717566
-0.481485
-0.299663
-0.470264
0.246193
0.160428
-0.584561
0.364433
-0.496708
0.501348
-0.460821
-1.04891
0.352187
0.724582
0.0822445
-0.217087
-0.241895
-0.0989185
0.389508
0.283294
-0.273258
0.239903
-0.429464
0.218829
0.0700983
-1.326
-1.49796
-0.326397
-0.37001
-0.450681
-0.213846
0.146244
-0.673982
-0.0779928
0.439527
0.0974837
0.323285
-0.16258
-0.35325
0.224192
-0.773816
0.750372
0.635078
0.308699
-0.733929
0.113422
-1.0414
0.110827
0.298531
0.282363
0.18654
0.215664
-0.454544
-0.425523
-1.00872
-0.807753
0.00813009
-0.695498
-0.0568547
-0.243361
0.302854
1.17924
0.260749
0.779707
-0.216097
0.34976
-0.326925
-0.4009
-0.494974
0.297607
0.936353
0.170418
-0.652047
-0.667177
-0.442254
0.0812329
-0.439161
0.876818
-0.901896
-0.26652
-1.47204
-1.28567
-0.533531
-0.797114
-0.593331
-0.375914
-0.305287
0.820468
0.0506573
0.602652
0.0313212
0.209736
-0.0993017
-0.0890386
-0.00288408
0.414479
-0.336978
0.178366
0.866536
1.42076
-0.582354
-0.103985
-0.385226
-0.173814
-0.507011
-0.784655
-0.26092
-1.09026
-1.4641
-0.170962
-1.71121
0.369951
-0.98424
-0.0938547
-0.0612305
0.770118
1.36768
0.946406
0.379561
0.273438
-0.0138207
0.235992
0.223231
-0.66306
-0.39398
0.361382
0.223622
1.51678
0.217917
-0.659317
-0.522166
0.290976
-0.369907
-1.18306
-0.661643
-1.69659
-1.50968
-1.31551
-0.960373
-1.04088
-1.10786
-0.337232
0.903836
0.452514
0.566393
-0.0443898
-0.218107
0.17374
0.236282
-0.2378
-0.451001
0.285827
-0.156461
-0.175471
0.00179459
0.563396
-0.303011
-1.00027
-0.735855
-0.821445
-0.472419
-1.26228
-1.4881
-1.96023
-2.15099
-2.23908
-0.598891
Bias: 
4.20273

Neuron 6
Weights: 
-0.931691
-0.671421
-0.678217
-1.06136
-0.722561
-0.466564
-0.803383
0.249614
-0.425611
-0.240069
0.307662
-0.222199
-0.335026
-0.665667
-0.326041
-1.39108
-0.350253
-0.635732
0.462114
1.33769
0.529431
0.645583
0.264357
-0.234295
-0.0586442
-0.319516
-0.349846
-0.562283
-0.655341
-0.780264
-0.507205
-1.25487
-0.761696
-0.230599
-0.708876
0.414657
0.869196
1.08503
1.19091
0.407663
-0.495835
-0.884202
-1.12649
-0.901732
-0.598257
1.04249
1.79197
1.98549
1.41977
0.945902
0.0591599
0.157225
-0.150848
-1.14385
-0.567188
-0.880365
-0.779543
-0.918807
-0.721834
-0.356189
-0.390661
-0.258745
0.2959
1.04921
1.69061
1.98258
1.09095
0.685705
-0.762804
-1.25157
-1.22657
-0.633961
0.575241
1.43464
2.90159
2.69108
1.67075
0.556018
0.463935
-0.145684
-0.480464
-0.429674
-1.04941
-1.00877
-0.937559
-0.405286
-0.664661
-0.741108
-0.448597
-0.0108827
0.242526
1.03379
2.097
2.97903
1.10119
0.145184
-1.11867
-0.766352
-1.61892
-0.491616
1.12763
2.29068
3.40137
2.36824
0.842477
0.228123
0.00340819
-0.24507
-0.84789
0.222093
-0.886668
-0.303976
-0.587905
-0.376883
-0.687337
-0.32182
-0.506592
-0.145251
-0.208943
0.794612
1.75673
2.72786
0.936804
0.523608
-1.24931
-1.43118
-1.29854
0.101637
1.31189
2.68583
4.36379
1.4335
-0.146812
-1.00319
-0.0654855
-0.0737616
-0.493972
0.224306
-0.915643
-0.478601
-0.741096
-0.443436
-0.310418
-0.497468
-0.486431
-0.130496
0.264078
0.957956
1.64321
2.33096
0.884282
0.257479
-0.572659
-1.43511
-1.39368
0.0848622
1.62579
3.7217
3.02932
-0.131194
-0.417602
-0.261434
-0.130183
-0.66837
0.193559
-0.602385
-0.305015
-0.503388
-0.498607
-0.465367
-0.399366
-0.381241
-0.160112
-0.0554293
-0.0273946
0.0751195
1.87542
2.85677
0.443421
-0.524378
-0.0677803
-1.82326
-0.524018
0.174952
1.45232
4.30525
1.11681
-0.281324
-0.432634
-0.517506
-0.749078
0.0196367
-0.321879
0.0759993
-0.215098
-0.279062
-0.54265
-0.09801
-0.44549
0.0303085
-0.486752
-0.10714
-0.122353
0.574215
1.89704
1.19652
0.675557
-0.777097
-0.34301
-1.13354
-0.606722
0.374471
2.13163
4.19001
0.0341324
-1.01814
-0.175325
-0.276075
-0.154449
-0.0677266
-0.133996
-0.506298
0.0762971
-0.533764
-0.183676
-0.199993
0.0519311
0.143818
0.131368
-0.185463
-0.536054
0.409762
1.24745
1.59628
0.182797
-0.205021
-0.436191
-0.634633
-0.272808
0.471133
2.96244
1.54913
-0.675255
-0.458942
-0.251657
-0.0583196
-0.344115
0.0735932
-0.441828
-0.151843
-0.581437
-0.492529
-0.767689
-0.0232449
-0.154848
-0.0608037
-0.0477621
0.109279
-0.313938
-0.0541543
0.569341
1.42571
0.0510129
-0.210857
-0.544308
-0.507928
-0.0872486
1.03483
3.09862
0.753152
-1.01385
-0.218025
-0.260576
-0.481125
0.106009
-0.070271
0.225802
-0.257369
0.43887
-0.167473
-0.0963727
-0.0361774
0.0142258
-0.338779
0.0783283
0.328876
0.149683
0.107818
0.550689
0.780577
0.0939687
-0.142434
-0.388756
-0.55834
0.306634
1.13428
1.59239
-0.182207
-0.116792
-0.186816
-0.00738459
-0.079349
0.0444939
-0.171952
-0.36314
0.191041
-0.13017
0.370143
0.247643
0.376725
-0.0216619
0.909652
0.189362
-0.14678
-0.140056
0.26749
0.278555
0.936084
0.0962698
0.0478457
-0.394742
-0.0575001
0.290556
0.833356
0.487459
-0.0772836
-0.0839542
-0.0309021
-0.16772
-0.323341
-0.0163706
0.0229153
0.0423764
-0.488444
-0.361461
-0.527619
0.011699
-0.220586
0.146308
-0.318443
0.396363
-0.188162
0.174689
0.249622
0.675276
0.498998
0.344688
-0.170642
0.0799097
0.214216
0.564096
0.803861
0.306255
-0.200933
0.132031
-0.1634
-0.0509618
-0.102225
0.209927
-0.611227
-0.0577893
-0.138233
-0.477059
-0.226535
-0.0714461
-0.00492628
0.575498
-0.543662
0.301081
-0.186632
0.330808
-0.118248
0.124851
0.235374
0.403665
0.212834
0.0194681
-0.0893112
0.629829
-0.198313
-0.0156743
-0.211542
0.193171
-0.0133991
0.163568
-0.186094
-0.100543
0.168148
0.639727
-0.115765
0.0325622
-0.164481
-0.407235
0.0366101
-0.134471
-0.189809
0.274552
-0.590762
0.122106
0.14334
0.0610218
0.0774085
-0.230317
0.0470144
-0.0277397
-0.13363
-0.250339
-0.0539827
-0.20189
-0.135983
0.0783971
0.102312
0.0911613
0.298843
0.412016
0.11099
-0.175809
0.175085
-0.205482
-0.46135
-0.454131
-0.409659
-0.175614
-0.280711
-0.16504
0.142049
-0.000584248
0.185006
-0.0795495
-0.248497
0.411054
-0.320954
-0.0991281
-0.10049
-0.0864777
-0.163624
-0.102332
0.0147351
0.127687
-0.00256685
0.413619
-0.0905846
0.16862
-0.414145
0.587152
-0.180854
0.0782928
0.0665928
-0.426171
-0.527014
-0.119157
-0.243098
0.35706
-0.248712
0.177246
-0.0804749
0.0859827
0.184014
-0.248793
0.201738
-0.357497
-0.242782
0.243354
0.0521393
0.0375513
-0.024097
0.182622
0.252789
0.191313
0.361847
0.231117
0.101211
0.588191
0.0363384
-0.455635
0.19173
-0.657227
0.0596092
-0.0508658
0.0949298
-0.394421
0.153667
-0.20917
0.0338069
0.0509328
0.0617813
0.0433054
-0.0127624
-0.154291
-0.0339209
-0.0948235
-0.145739
0.0373164
-0.213167
-0.346312
-0.0394344
0.039474
-0.3682
-0.383763
0.0929811
-0.253849
0.070499
0.672205
-0.886245
-0.324355
0.261101
-0.73947
0.0190531
0.020404
0.195792
-0.37209
0.123318
-0.207245
-0.0818534
-0.080585
-0.148433
-0.162411
-0.214507
-0.265307
-0.191822
0.0912191
0.0550488
-0.074437
0.121311
-0.317804
0.275172
0.657957
0.467214
0.0814407
-0.159589
0.170992
-0.185397
-0.361069
0.310364
0.289907
0.120118
0.366357
-0.132336
0.127707
0.028126
0.0225431
0.226044
0.00972736
-0.0348987
-0.0480034
-0.00456255
-0.022409
0.0490217
-0.0808848
-0.198307
-0.0627369
-0.548146
0.0284147
-0.138493
0.0936779
0.143606
0.0794068
-0.232121
0.0136566
-0.332298
-0.232389
0.607103
-0.207761
0.0907297
-0.46787
0.276131
-0.211647
0.363551
-0.0539797
-0.375668
0.271354
-0.466707
0.294687
-0.23069
-0.209043
-0.25404
0.13314
-0.00429968
-0.0829012
0.158541
0.208051
-0.0741028
0.327203
-0.0454148
-0.115846
0.362092
0.219186
-0.545571
-0.224715
-0.379791
-0.12707
0.179798
0.363553
0.194838
-0.0604083
-0.529267
0.331549
-0.00752044
0.232668
-0.218353
-0.0568708
0.177565
-0.126211
0.0918747
-0.556377
0.173222
-0.33793
-0.388311
-0.13825
0.054728
-0.0770163
0.0386153
0.130294
0.0989876
-0.0878227
-0.418234
0.28526
0.222995
-0.143767
-0.156633
-0.0776426
-0.0858437
0.0266956
0.032414
-0.441706
0.0997113
-0.0217841
0.0254648
-0.174548
0.000801738
-0.00822338
-0.203256
0.381543
-0.326662
0.274441
0.0421764
-0.210176
0.109495
0.344793
0.208886
-0.349364
-0.192437
-0.399198
-0.569117
-0.52587
-0.259485
0.369781
0.0198068
0.147559
-0.0691638
-0.161282
-0.183669
0.142372
-0.0356226
-0.0353382
0.127515
0.405559
-0.0902525
0.116395
-0.0950202
0.0991675
0.333988
-0.0734095
0.0750234
-0.193158
0.334839
0.0518681
0.141093
0.142455
0.0491496
-0.730895
-0.577089
-0.390639
-0.12168
-0.707986
-0.615471
-0.451008
-0.0359449
0.069443
0.0993484
-0.505852
0.183614
-0.299696
-0.0641401
-0.259801
0.265326
-0.0568103
-0.0744006
-0.251948
-0.496319
0.339138
-0.645494
0.442953
0.0221443
0.0872527
-0.209338
-0.737233
-0.472568
-0.377319
-0.631895
-0.190304
0.0644104
-0.258959
-0.046868
0.45871
-0.261248
-0.0307045
-0.186089
0.246641
-0.0318841
0.09734
0.334731
0.157223
0.0228758
0.101449
-0.155612
0.121434
0.00240498
-0.401054
0.0256515
-0.233759
0.0922818
-0.21288
0.0622533
-0.651537
-0.392929
-0.90851
-0.699105
-0.339359
-0.099638
0.0303846
0.0966984
0.169918
-0.368273
-0.130406
-0.317423
-0.0907202
-0.172924
0.239991
-0.279178
-0.158866
-0.0728562
0.0592053
-0.101549
-0.0709718
0.137089
0.0191922
-0.0157803
-0.149504
-0.406619
0.0158411
-0.389984
-0.463107
-0.507496
-0.840068
-0.34946
-0.513063
-0.0657785
-0.121305
0.261236
0.458257
-0.0739374
0.720726
0.33193
0.335487
0.225339
0.106718
0.579772
-0.0753066
0.364999
0.124712
0.187285
0.489993
-0.0375657
0.375834
-0.28854
-0.118372
0.0656616
-0.489922
-0.297082
-0.223819
-0.915841
-0.772947
-0.583796
Bias: 
0.524399

Neuron 7
Weights: 
-0.733795
-0.817554
-0.554878
-1.65814
-1.28908
-1.03968
-0.888211
-0.227614
0.0755803
-0.0894787
-0.388916
0.864152
0.52104
0.685795
1.42366
1.92581
2.35851
2.54333
1.92153
1.77708
0.814046
0.748506
-0.136664
0.706802
-0.914725
-0.511127
-0.782314
-0.734349
-0.642722
-1.17386
-0.738856
-0.538642
-0.610853
-1.16557
-0.253887
-0.0928362
-0.443682
0.00106745
0.447422
-0.371313
-0.366805
0.0123539
0.222906
0.0885587
1.04772
2.80301
3.43645
3.59478
3.26805
2.53075
1.16866
1.65184
0.931758
-0.748376
-0.304428
-0.403195
-1.00208
-1.01355
-0.626538
-0.984368
-0.931576
-1.11772
0.159883
-0.265996
-0.175423
-0.0788964
-0.127939
-0.747985
-0.257001
-0.72644
-0.921155
-0.935136
-0.762941
0.363107
0.0998504
1.74558
2.17106
3.18712
3.87395
2.88102
1.48577
0.438181
0.268475
-1.06987
-0.651274
-1.25556
-0.765373
-0.841372
-0.122905
-0.644015
-0.0520994
0.690032
-0.000617673
0.393137
0.708147
-0.326322
-0.149683
-0.402199
-0.522368
-0.885512
-1.55079
-0.741571
0.390723
-0.0340631
0.386463
0.0728716
2.46063
3.4715
2.80334
1.72064
0.438278
-0.305347
-0.444685
-0.553964
-1.2098
-0.653729
-0.194313
0.226828
1.19557
0.290022
0.758028
-0.00607896
0.137439
-0.204044
0.120779
-0.32661
-0.178054
-0.919054
-1.13517
-0.658634
-0.673801
0.324296
-0.719487
0.0773333
0.0720949
1.76083
2.89837
2.82777
1.45304
-0.403493
-0.0895898
-0.32417
-0.42004
-0.435308
0.245351
0.228437
0.207504
0.525605
0.153792
0.707437
1.02682
0.0726372
0.070689
-0.322487
-0.113877
-0.732827
-0.762662
-0.603592
-0.213301
-0.503778
0.159104
-0.596503
0.201796
0.0689727
2.06109
2.85488
1.76911
0.785337
-0.673254
-0.407172
-0.0950124
0.0725735
0.277627
-0.0313906
-0.299801
0.761385
0.413451
-0.23975
-0.032206
0.0911471
0.159209
-0.338612
-0.850127
-0.652769
-1.07556
-0.46711
-0.509838
-0.341078
-0.693621
0.327508
0.224212
0.277537
0.765416
1.80479
2.41983
0.556129
-0.605957
-0.210988
-0.133135
-0.235564
-0.155814
0.83635
-0.114528
0.0995176
0.391585
0.555068
0.299612
0.891386
0.676137
0.601481
0.196341
-1.22804
-0.625994
-0.204467
-0.26674
-0.623963
-0.400539
-0.017329
0.096087
-0.156883
-0.0160747
1.87204
1.6148
0.693702
-1.09023
-0.403531
0.979243
0.557108
0.814762
0.884206
-0.00483199
0.656741
0.274347
0.483222
0.574111
0.309492
0.711851
0.829608
0.451326
-0.657485
-1.52834
-1.3458
-0.618042
-0.886793
-0.228925
-0.728865
-0.132213
0.140049
-0.0539116
0.337899
2.48281
0.558694
-0.844756
0.158694
0.0730373
0.781348
0.538585
0.85697
0.425429
0.762728
0.799906
0.489054
0.977402
1.03674
0.549192
1.33661
0.590175
-0.491807
-0.922628
-1.15054
-1.27347
-0.136204
-0.347916
-0.10773
-0.263841
0.0287853
0.303405
-0.238105
1.42942
0.422167
-0.704136
-0.100988
-0.875037
0.37769
-0.363394
0.179111
-0.403786
0.00895334
-0.039775
0.178714
-0.327893
-0.105491
0.0833044
0.28982
1.57998
0.363281
-0.212531
-0.215636
-0.744694
-1.49064
-0.369613
-0.933143
-0.578408
-0.487125
-0.551358
0.145145
0.100792
0.577498
-0.378231
-0.468783
-0.555358
-0.0658869
0.140971
-0.116477
0.195783
-0.257625
-0.174243
-0.237391
0.275302
0.249358
0.226544
0.944932
0.459186
0.838207
0.114659
-0.576874
-0.264482
0.0457617
-0.18292
-0.084228
-0.62649
-0.544997
-0.342466
-0.465851
0.868567
0.50366
-0.400431
-0.168086
-0.285131
-0.313018
-0.6192
-0.338423
0.0185032
0.367477
0.162994
-0.101802
0.35837
0.357293
0.23302
0.500899
0.979613
0.190626
0.107864
0.0365201
-0.90505
-0.516501
-0.42832
-0.212607
-0.0815184
-0.533748
-0.395667
0.151734
0.112376
-0.0550176
-0.669334
-1.00319
-0.047163
0.0868845
0.521084
-0.0710174
-0.403309
-0.0497355
-0.0974642
0.0278556
0.00906399
0.295267
0.278262
0.329866
0.798858
0.723748
-0.51717
0.0960537
-0.553523
-0.328982
-0.519434
-0.308077
-0.464787
-0.407917
-0.799762
-0.0648901
0.0574662
0.220815
-0.710353
-1.04825
-0.998093
-0.625895
-0.782322
0.224839
0.217181
0.22335
-0.195868
0.178725
-0.123009
0.298554
0.611584
0.0591205
0.757619
0.376648
0.130787
-0.648967
-0.173797
-0.531427
-0.247593
-0.536293
-0.949813
-0.167293
-0.146303
-0.119364
0.289105
-0.128801
-0.329019
-0.996016
-0.267526
-0.341188
0.429511
-0.241223
-0.0398946
-0.0251935
0.473238
0.252935
0.0142178
0.256627
-0.316689
0.368608
0.482611
0.107023
-0.299793
0.126224
-0.630321
0.170641
-1.07439
0.464678
0.0160834
-0.455591
0.214689
0.0826581
0.437874
-0.545342
-0.875495
-0.235903
-0.0118216
0.198566
0.251554
0.0407513
0.084213
0.0376317
0.346628
-0.000241963
0.198735
0.208431
0.841194
0.0474267
0.215481
0.357619
-0.310869
-0.0255254
0.199189
-0.310607
0.22663
-0.593439
0.15311
0.232166
0.094506
0.704076
0.100694
-0.4693
-1.19542
-1.01252
0.0161549
-0.589054
-0.0363495
-0.110431
0.30805
-0.392512
0.133885
0.153378
0.443909
0.51421
0.132246
0.300731
-0.255501
-0.0660864
-0.111307
0.0176255
-0.111992
0.0202534
0.132081
0.155256
0.259273
0.16426
-0.190784
0.146335
-0.13862
-0.226508
-0.440547
-0.583495
-0.0706956
0.222761
0.17067
-0.240149
-0.0443115
0.092148
0.22385
-0.0657297
-0.00765121
-0.0949911
0.371837
0.218502
0.0520446
0.305304
-0.160155
0.694361
-0.229986
-0.131868
-0.0475866
-0.255505
0.393651
-0.0295252
0.779708
0.223449
-0.423896
-0.134988
-1.52198
-1.00497
0.360322
-0.160825
-0.104476
-0.361273
0.0795096
-0.419196
-0.217467
0.58014
0.0609901
0.26331
-0.314069
0.17006
-0.293854
0.157899
0.00981461
-0.480131
-0.0644548
0.45324
0.231561
0.538572
0.173538
0.186076
-0.148064
0.695762
-0.216291
-0.90214
-1.43725
-0.184437
-0.643478
0.15498
-0.157801
0.210661
-0.254723
-0.0918883
0.226314
-0.199964
-0.308851
0.0427817
0.254928
0.116926
0.43673
-0.29522
0.502248
0.949867
-0.433096
-0.119354
0.23153
0.274482
-0.21661
0.194721
-0.201771
0.27429
-0.0112325
-0.7644
-1.19073
-0.514022
-0.731103
0.491053
-0.429254
-0.432635
-0.256851
0.277366
-0.306192
0.285666
0.0134813
-0.0601246
0.0856538
-0.104107
0.173594
0.285177
-0.295208
0.157665
-0.020599
0.316593
-0.0122141
0.527224
-0.0825631
0.444383
-0.363283
0.390447
-0.331992
-0.947515
-1.17786
-0.171959
-0.332311
0.017208
-0.470816
-0.187688
-0.157988
-0.101949
0.345986
0.156493
-0.264269
0.45637
0.0967826
-0.114146
0.13531
0.0594316
0.937546
0.189128
-0.285657
-0.174608
-0.0628381
0.321785
-0.0096162
-0.324586
0.234877
-0.184096
-0.889706
-1.33247
-1.06316
-0.44064
-0.312214
-0.342004
-0.478975
0.148189
-0.064418
-0.106939
-0.444196
-0.420756
-0.106574
0.182285
-0.292708
-0.305314
0.229622
-0.21706
-0.133746
0.18736
0.144185
0.319862
-0.187645
-0.418547
0.288922
0.106162
-0.291232
-0.73762
-0.826551
-0.810144
-1.14584
0.103412
0.0871469
0.419581
0.315976
-0.621654
-0.117372
-0.208549
0.306688
0.161539
0.19339
-0.260766
0.145804
-0.103057
-0.200657
0.148437
0.155447
-0.393324
-0.0544305
0.109332
0.134863
-0.439626
0.0689117
0.21778
-0.453596
-0.736578
-1.40147
-1.57896
-0.591592
-0.323576
-0.0717743
-0.461266
0.0651043
0.195356
0.0222493
-0.23043
-0.17788
-0.0941682
-0.366946
-0.164905
0.192371
-0.185905
-0.0463412
0.298247
-0.413292
0.49858
0.29812
-0.241692
0.348025
0.161231
-0.707214
-0.431116
-1.14732
-1.30946
-1.13214
-0.984787
-0.959224
-0.806707
-0.357715
-0.0259771
0.238775
-0.637996
-0.262976
-0.0590286
-0.541586
-0.435224
-0.0457574
-0.572673
0.220487
-0.176978
0.187137
-0.547821
-0.501299
-0.508219
0.283531
-0.0444085
-0.28969
-1.19264
-1.04668
-1.22592
-1.67279
-1.19052
-0.938607
-1.00714
-0.914806
-0.358226
-1.28266
-0.99702
-0.0364521
0.892902
0.148669
-0.109748
0.106806
-0.0947304
-0.339567
-0.201002
-0.0946217
-0.0664456
-0.177737
-0.306402
-0.450559
-0.718018
-0.230961
-0.997914
-0.926176
-0.798936
-1.67412
-0.555997
-1.28124
-1.33905
-1.26001
-1.04906
Bias: 
4.23252

Neuron 8
Weights: 
0.695595
-0.164309
-0.0022474
-0.281615
-0.145626
-0.283698
0.238041
0.246157
-0.0310013
-0.994284
0.204398
-0.857725
-0.227684
-0.281989
-1.09975
-0.536339
-0.556627
-0.597795
-0.860862
-0.41062
-0.449204
0.643614
-0.672402
-1.1361
-0.0563139
-0.534657
-0.0720078
-0.0793714
-0.359017
-0.172037
0.196971
0.268529
0.29727
-0.870981
0.07576
-0.166734
-0.389079
-0.0642405
-0.0866772
-0.839129
-0.0585553
-0.100024
-0.82823
-0.0609434
-0.641996
-1.1789
0.446013
0.150504
-0.345563
0.332082
-0.518491
-0.281435
-0.760873
0.00807605
-0.629707
0.317482
-0.428321
-0.49077
-0.536764
-0.0205136
-0.0292636
-0.0979885
-1.09131
0.288483
0.0302831
-0.70799
0.82165
1.06587
-0.138871
-0.378677
-0.253061
-0.328464
-0.970256
-0.818387
0.307911
-0.311189
-0.0661094
-0.120206
-0.405825
-0.380473
0.555375
-0.221902
-0.139099
-0.067754
0.190015
0.430221
-0.570848
-0.479518
-0.368101
-0.0200654
0.452831
-0.0979949
-0.540904
-0.478644
0.481943
-0.589945
0.340704
-0.900751
-0.819216
-0.520007
-0.783574
0.0903144
-0.534798
-0.683385
0.00573219
-0.324534
-1.11324
-0.852438
-0.848493
-0.974046
-0.302301
-0.397615
-0.322415
0.221551
0.00579161
-0.151579
-0.850065
-0.523007
-1.22765
-0.331258
-0.979466
0.169409
-1.15504
-0.350854
0.265824
-0.891857
0.610295
-0.0810106
-0.59656
-0.852558
0.722383
-0.292045
-0.312969
-0.197393
-0.692016
-0.400643
-0.00995753
-0.753447
-0.314708
-0.296333
-0.310411
-0.322635
-1.50939
0.0488374
-0.607922
-0.319135
0.539706
-1.33788
-0.0696341
-1.1193
-0.0193522
-1.0459
-0.195805
-0.74721
-0.574714
-1.04164
-0.08399
0.0279696
-0.731956
-0.288963
0.405294
-0.189519
-0.304407
-0.311081
-0.319829
-0.185635
0.561062
0.449792
-0.607192
-0.679636
-0.897935
-1.48593
-0.675414
-0.275443
-0.511092
-1.16311
-0.319643
0.842857
-0.564671
-0.184001
-0.662723
-0.405701
-0.687052
-0.514803
-0.401978
0.127678
-0.327078
0.69305
-0.520686
0.0608937
-0.153005
0.530411
0.64735
0.672496
0.1837
-0.419791
-0.201534
-0.7908
-0.918804
0.150817
0.476341
-1.01949
-0.151926
-0.675491
-0.579725
-1.35762
0.0189352
-0.39983
-0.256956
-0.774271
0.000649165
-1.00213
-0.393661
0.146648
-0.548437
0.196277
-0.523134
0.212533
-0.435969
0.59271
-0.184208
0.680795
0.891545
0.61804
-0.124536
-0.172059
-0.631361
-0.396294
0.595822
-0.0465359
-0.304408
-0.572541
-0.0790356
-0.315525
-0.569024
-0.0220655
-0.405647
-1.4801
-0.162359
-0.864793
-0.194725
-0.392077
-0.215842
-0.124728
-0.603356
-0.656779
0.186793
0.17855
0.944608
0.924424
-0.161068
0.102733
-0.369922
-1.12638
-0.322601
0.110986
-0.296171
0.180068
1.28568
-1.13242
0.333196
0.15393
-0.474294
-0.417812
-0.0215684
-0.553695
-0.493528
-0.142778
-0.802677
0.0813282
-0.0592925
-0.0377169
0.227833
0.459583
0.294707
0.369323
0.6823
0.20987
-0.7143
-1.37786
-0.240931
-0.410647
-0.197585
-0.583606
-0.20206
-0.303073
0.364161
-0.565395
-0.660061
-0.909203
-1.10137
-1.15276
-0.687316
-0.400193
-1.01915
-0.302744
-0.418539
-0.176177
-0.108454
0.531262
-0.509199
-0.111871
-0.352626
0.379848
-0.949411
-0.429375
-2.30381
-1.82279
-0.289259
-0.161386
-0.389732
-0.969533
-0.397468
-1.13851
-1.44802
-1.06077
-1.26591
-0.952592
-1.54267
-2.12436
-1.6309
-2.48252
-2.44321
-2.9888
-2.27624
-1.94718
-3.07199
-2.86269
-2.27181
-2.09861
-3.20688
-3.59428
-3.57197
-3.82553
-4.31679
-3.22491
0.249666
-0.217687
0.00461202
-0.630881
0.133623
-1.39868
0.0359152
0.016766
-0.201795
-0.687494
0.0259763
-0.5365
-0.589191
-0.332721
-0.887178
-1.26418
-2.2334
-2.89952
-2.99291
-2.92572
-3.94222
-4.27696
-5.08309
-5.19367
-4.2341
-4.86074
-4.24779
-3.18713
0.0962597
0.342676
-0.384648
-0.531374
-0.636249
0.51851
-0.192391
-0.732597
0.562623
-0.132698
0.217656
1.4869
0.90722
0.840942
-0.0621448
0.525955
-0.220907
-0.134902
-0.898122
-0.944921
-1.39269
-0.572299
-0.904513
-1.76637
-1.50199
-1.96339
-1.44979
-2.5824
-0.08028
0.646235
-0.171424
0.915964
0.847426
-0.522232
1.22267
-0.502784
1.49468
0.189759
1.45205
0.948834
1.58178
1.7567
0.960383
0.980369
0.513098
0.772155
0.808883
1.36554
0.903685
0.936354
0.571982
0.440635
1.02053
-0.439377
0.189343
-1.02839
-0.39199
0.401724
0.548894
-0.12217
-0.347895
0.843691
-0.0586972
1.16697
-0.262678
0.549627
0.35612
1.08584
1.34979
1.1163
1.39314
1.49612
0.698107
1.73473
0.7829
0.622508
1.76072
0.387661
2.29352
0.087227
1.54564
0.255949
0.232755
-0.442337
0.875774
0.406597
0.572321
0.624082
0.570902
0.578109
-0.763612
0.372873
0.718961
0.624689
1.2046
0.636306
1.10482
1.09549
1.13994
1.22109
1.07913
0.376889
0.685417
0.91975
0.0237113
1.11521
-0.118092
1.71822
0.0714354
1.18822
0.40781
-0.240935
0.409426
0.862488
0.962942
-0.104188
0.356815
-0.94104
0.885597
-0.253073
0.175584
0.949051
0.771988
0.936263
0.82044
0.912026
0.487336
0.888497
1.19567
0.409869
1.26378
0.964111
0.628206
0.684471
0.279172
-0.0129099
0.184009
1.02423
0.981383
0.513701
0.242707
-0.212333
0.346077
0.100471
-0.0380413
0.293141
0.640043
0.17462
1.21301
0.400726
0.614132
0.791762
0.422813
0.495924
1.03267
1.24101
0.94973
0.508511
1.04479
0.372995
0.668584
0.63625
0.888769
1.2506
0.503071
0.719393
1.99436
1.4871
-0.534249
0.165425
0.388445
0.0370826
0.436952
0.559339
-0.319756
1.11684
0.863302
0.598347
-0.13696
0.0234793
0.0589166
0.9558
-0.143557
0.443132
0.788379
-0.404076
0.752628
0.682901
0.786091
0.601657
1.1191
1.27274
1.12301
0.806054
0.580504
0.867125
-0.454797
-0.5624
0.392116
0.516956
-0.306736
0.15298
0.783125
0.00695018
0.262367
0.343262
0.0789072
0.400803
-0.10126
0.330659
0.62984
0.518003
0.422371
1.59965
0.612774
-0.125534
1.79041
1.08211
1.4426
0.977511
0.624438
1.52398
1.41762
0.962663
0.634889
0.421039
-0.11244
-0.555695
0.260419
0.308897
-0.0600249
0.370468
0.458189
0.0763761
-0.843098
-0.341832
0.496475
-0.314371
0.386758
0.148081
0.202471
0.465756
0.12417
1.2877
-0.476374
0.53807
1.84039
0.806808
0.728748
1.13627
0.862242
-0.862425
0.172355
-0.591463
0.0491491
0.278355
-0.246835
0.179934
-0.496439
-0.236795
-0.490718
-0.32325
0.505899
-1.02665
-0.0241114
-0.505076
0.251576
-0.313459
-0.0499887
-0.699465
0.0674964
1.04899
0.120919
0.242998
-0.336724
0.199965
-0.341683
0.301272
-0.720512
0.298374
-0.758714
-0.420288
-0.0634401
0.155536
-0.362139
-0.59829
-0.561085
-0.291612
-1.08387
0.188292
-1.3084
-0.402832
-0.462333
-0.00172356
0.129288
-1.14857
-0.00679774
-0.31334
-1.11881
-0.719647
-0.515364
-0.0146405
-0.0344514
-0.874652
-0.803062
0.424498
0.353605
-0.189123
-0.258317
-0.26227
0.676516
-0.439517
-0.357341
-0.834777
-0.508159
-1.56618
0.41384
-0.85037
-0.267377
-0.0776719
-1.13559
-1.01776
-0.275621
-0.382041
-0.731279
-0.525479
-0.31083
-0.48023
-0.773367
-1.38072
-1.09289
-1.19147
-0.822502
-0.779878
-0.537706
0.657999
-0.551169
-0.710414
-0.287096
-0.553158
-0.860235
-0.557375
-1.54796
0.174664
-0.451406
-0.509789
-0.15527
-0.118082
-0.46596
-0.484948
-0.944355
-0.233615
-0.363335
-0.110571
-1.01821
-0.793218
-1.19633
-0.408169
-0.543815
-0.95079
0.040312
-0.104662
-0.129718
-0.524584
-0.854415
-0.0860646
-0.00363159
0.115533
-0.46687
-0.563764
0.284898
-1.42212
-0.677882
-0.613895
-1.78195
-0.400604
-1.70468
0.120681
-1.01674
-0.76091
-0.720572
-0.739954
-0.431444
-1.2293
-0.293936
-1.46499
-0.826694
-0.731303
-0.625516
-0.784391
-0.552446
-0.0623143
-0.175484
-0.390437
0.297965
0.196792
-0.922112
0.0850223
-0.670895
-0.559308
-2.08461
-1.67714
-2.47987
-1.72043
-2.21076
-2.2154
-2.34709
-2.91248
-1.91813
-2.09385
-0.457688
-1.57561
-0.469369
-0.960264
-0.482945
-0.24277
0.0903604
-0.401076
-0.675981
-0.718471
Bias: 
1.12746

Neuron 9
Weights: 
-0.354297
-0.0128183
-0.897991
0.183026
-0.587117
-0.0897852
-0.382858
-1.24555
-0.640678
-0.36111
-1.46662
-0.466269
-0.96686
-0.913007
-1.4532
-0.644809
-0.108466
0.335637
-0.545068
0.37965
0.10654
0.77592
-0.450935
-0.20973
-0.164364
-0.0902356
-0.397042
-0.610736
0.0846897
-0.810645
-0.0784407
-0.94705
-0.378176
-0.583712
-1.34826
-0.769725
-0.785365
-0.805609
-0.594827
-0.38947
-1.18936
0.545339
-0.157116
-0.0069666
-0.123635
0.0826473
0.492259
0.352721
0.174241
0.287797
0.801177
-0.860539
0.0109728
0.408898
-0.680844
-0.0736472
-0.461369
-0.500187
0.208939
-0.734627
-0.509629
0.00652863
-0.234331
0.0234018
-0.869116
0.342511
-0.0716995
-0.170489
0.912484
-1.38858
-0.232269
0.306176
-0.152596
0.0900015
-0.353544
0.285197
-0.48245
0.321339
0.249902
0.763023
-0.0974346
-0.166582
-0.3789
-0.81424
-0.349501
-0.173993
-0.293362
-0.29859
-0.0196428
-0.184929
0.274261
0.429398
0.690589
0.399254
0.386998
0.420205
0.0457062
-0.231145
-0.0306617
-0.325167
0.175168
-0.22114
0.110953
-0.183076
0.583493
-0.347654
-0.535185
-0.114422
0.769256
-0.191935
0.27017
-0.403022
-1.4443
-0.699131
-0.615625
0.12007
-0.42654
0.00889275
-1.01094
0.377786
-0.0607365
0.293259
0.0445191
-0.36486
0.338267
-0.682092
-0.570814
-0.216598
0.0434334
-0.131071
0.424631
-0.240284
-0.452324
0.261249
1.24305
-0.462277
0.919949
0.43906
0.541556
0.454817
-0.263003
-0.925489
-0.551382
-0.169429
-0.210734
0.9113
0.268923
0.91827
-0.1516
0.0488941
0.0222606
0.15458
-0.105186
0.193703
0.237662
-0.859808
0.485401
-0.728686
0.0888618
-0.128597
0.0589376
-0.220361
0.23884
0.414452
-0.172547
-0.104824
0.134866
0.0302614
-0.95382
-0.879084
0.340025
-0.618521
-0.243509
0.663513
-0.619741
0.423137
0.927884
-0.372615
0.236498
0.107981
-0.234083
-0.7356
-0.596476
-0.295361
-0.0473669
-0.158573
0.0342296
-0.299313
0.839973
-0.370461
-0.0187023
-0.544015
0.951559
0.0686177
0.295445
0.311489
-0.687254
-0.632436
-0.0198792
-0.417378
0.435745
0.456929
0.022229
0.224173
-0.322989
0.361847
-0.00970347
-0.186877
0.426634
-0.203912
0.061718
-0.539985
-0.055832
0.017475
-0.00707893
-0.0960505
-0.0829575
0.149447
0.268616
0.33723
-0.233836
0.304739
0.193868
-0.114405
-0.86466
-0.238942
0.368005
0.107718
0.211211
-0.227581
-0.226395
-0.195158
-0.308498
-0.511644
0.404132
0.112965
-0.0947584
-0.283528
-0.119923
-0.047613
-0.447747
0.294059
-0.610976
-0.534924
-0.252023
0.0669476
-0.407094
-0.929065
-0.368769
0.875624
-0.852213
-0.10897
-0.387695
-0.272482
0.22353
1.66892
-0.599891
-0.930556
-0.326254
-0.619655
-0.200481
-0.420424
-0.14874
-0.0991812
0.040656
-0.611615
-0.717419
-1.34116
-0.63044
-0.649167
-0.194689
-0.16423
-0.573965
-0.164846
-0.278963
0.439335
-0.212503
0.607495
0.24438
-0.852779
0.329451
0.576832
1.02193
-0.391857
0.821645
-0.08215
-0.114721
-0.438532
0.260944
-0.0749396
-0.44525
-0.728953
-0.68999
-0.238928
-1.58642
-0.653899
-1.27694
-0.695549
-1.1166
-0.855236
-0.596329
-0.504424
-0.623647
0.432942
-0.221506
0.845016
-0.0830514
-0.824256
0.676326
0.527227
0.631844
0.166925
0.20322
-0.827179
-0.969811
-0.345159
-0.712279
-0.130028
-0.610192
-0.0842895
-1.0702
-0.694049
-0.750999
-0.489576
-1.06446
-0.746059
-0.586647
-0.743652
-1.20486
-0.675609
0.00843446
0.132185
-0.507455
0.585013
-1.01536
-0.241905
-0.614963
0.642501
0.84362
-0.393951
1.06954
0.763709
0.237329
-0.342075
-0.263413
-0.313512
-1.14356
-0.625251
-0.503935
-0.824374
-1.81913
-0.916539
-0.937384
-0.527364
-0.976031
-1.31857
0.0218069
-0.941177
0.267039
0.694566
-0.00936414
0.371159
-1.22229
-1.66362
0.0369189
0.369121
0.47937
0.127025
-0.294977
0.825903
-0.185845
0.634474
-0.668454
-0.667692
-0.170705
-0.575453
-1.05544
-0.083431
-1.09956
-0.411361
-0.909339
-0.499528
0.352964
-0.203889
-0.42424
0.852757
-0.370408
-0.210266
-0.0945914
0.192555
-0.0224809
-0.0353922
-0.291542
-0.225266
0.747285
1.02648
0.869977
0.532156
1.13677
0.644578
0.360216
1.47663
0.481805
0.0178464
0.30312
0.0452421
-0.622312
0.0623541
-0.524071
-0.123718
-0.342682
-0.327311
0.311944
-0.359672
0.73002
0.317046
-0.0358154
0.246158
0.479693
-1.18871
-0.677165
0.0769402
0.171074
0.995461
0.151406
0.48575
0.828066
0.244175
0.538656
0.319
0.117226
0.602996
-0.193028
-0.571231
-0.3092
-0.619966
-0.565195
-0.0769482
-0.301283
0.58326
0.0125596
0.427369
0.596824
0.188838
0.231556
0.756875
0.812874
-0.623143
-0.18466
-0.642783
0.148473
1.06101
0.258933
1.0734
1.09595
0.312191
1.07352
0.391939
1.08099
-0.119532
0.990913
0.221374
-0.367429
-0.545653
-0.093877
0.264844
0.536029
0.346641
0.982578
0.77528
0.369745
1.10864
0.570822
0.642725
0.0170876
-0.763644
-0.00425547
0.252085
0.576077
0.76904
0.506709
0.997754
2.05294
0.996479
0.672448
1.18898
0.408902
1.67429
0.848004
0.750703
0.973189
0.554468
0.890821
0.731609
0.634291
0.568649
0.522802
0.826661
1.29145
1.24891
1.34569
0.972551
0.900865
0.738608
-0.040674
0.331011
0.351609
1.08999
1.9745
0.726933
0.83626
0.252246
1.41306
1.21952
1.23593
1.38514
1.77039
2.29114
1.66409
1.86309
0.970806
1.6371
1.0876
1.47859
1.5739
1.84684
1.2122
1.61358
1.12662
0.937897
1.30954
0.431959
-0.1052
1.20309
1.04678
0.75524
0.75323
1.64344
1.44308
0.73804
0.823114
0.739216
0.960818
0.802341
0.699648
1.55524
1.76306
1.07363
1.88581
0.85667
1.15353
0.773204
1.14502
1.2532
0.651004
1.03318
1.67116
0.109752
1.03185
0.37168
-0.483781
0.250831
0.463442
0.921028
1.19222
-0.0593467
0.597292
1.2637
1.1965
1.04554
0.124043
1.66822
1.72354
0.875134
1.05747
1.06299
1.2066
0.73061
0.816263
1.18294
-0.0531631
0.766157
0.534436
0.245992
0.668207
0.342724
0.883635
0.281085
-0.124862
-0.0141654
0.97564
1.44237
0.359588
1.24478
0.316069
-0.813474
0.23051
0.655015
0.365581
0.0779947
0.24132
0.654115
0.546728
0.512631
0.420338
0.898989
0.452245
0.39133
0.69744
0.341292
0.0755457
0.482612
0.144529
-0.161587
0.187619
0.0889943
0.252631
0.808078
0.349296
0.458818
-0.386862
0.58521
0.165616
0.923996
0.155097
0.00510119
0.362976
0.619842
0.374402
0.630838
0.369479
0.637504
0.944591
0.651031
1.15663
-0.0454907
0.710277
0.177772
0.25412
-0.402134
0.122696
0.10294
-0.358332
0.136986
-0.175096
0.467289
1.07401
-0.311281
0.622783
0.171178
-0.447569
0.372483
-0.139569
0.135025
0.0794863
1.01708
-0.0281638
0.45721
0.756812
0.566464
0.273319
0.825875
0.187248
0.342977
0.249371
-0.44831
0.846358
-0.425582
0.475595
0.351613
-0.753712
-0.155011
-0.464634
-0.506935
0.878744
-0.401238
1.13487
0.885446
-0.00154835
1.04074
0.480346
0.51663
0.688586
0.37637
0.24644
0.39394
0.272407
0.653277
0.84724
0.817634
1.09862
0.993497
0.924561
0.504244
0.873417
-0.0607907
-0.401561
-0.595816
-0.918167
-0.37972
0.232515
-0.631565
0.724495
0.421611
0.512202
1.52588
1.30041
0.844579
0.668297
0.943705
0.69806
1.40904
0.955953
1.30649
1.14668
1.68761
0.829239
0.673242
1.42342
0.729725
0.497355
1.20148
0.175303
0.170693
0.171247
-0.695361
-1.16692
-0.692173
-0.56224
-0.244546
0.446633
0.508537
0.685061
1.19254
1.22615
0.694102
0.931083
2.11256
1.49263
1.30387
0.877785
0.711409
2.00606
0.485097
1.29688
0.842199
0.450495
1.83237
0.404233
-0.137906
0.431155
-0.107241
-0.493034
-0.707779
-0.674883
-1.40265
-0.432631
0.0978817
-0.720702
-0.4983
0.53705
0.487757
0.129174
0.861407
0.096854
0.649867
0.0825067
-0.0576592
0.709689
1.19477
0.218995
0.374135
0.753125
-0.118921
1.39373
0.199206
0.584597
-0.40927
0.201972
0.303293
-0.475818
-0.411365
-0.148281
-0.772699
Bias: 
1.78181

Neuron 10
Weights: 
1.96746
0.0172241
0.0748558
1.09451
0.919114
1.02675
0.0618587
-0.488566
-0.886488
-0.548566
-0.188136
-0.338666
-0.409091
-0.135084
0.583672
-0.649906
0.0320668
-0.60441
-1.24806
-0.374628
-1.21706
-0.675554
-0.718295
-0.351764
0.102234
0.632479
0.355007
0.0879034
0.835744
1.40933
-0.0525059
0.411372
-0.0450693
-0.676484
-0.30253
-0.339785
0.0491966
-0.231572
-0.855995
-0.0910226
-0.735581
-0.953494
0.781439
-0.404194
-0.411868
-0.27128
-0.4733
0.162056
0.220806
-0.0848489
-0.668404
-0.198102
0.0153804
0.0505702
-0.124407
0.247888
0.0169499
-0.022316
0.978542
0.168092
-0.416376
-0.276607
-0.380742
-0.723071
-1.30257
0.345353
0.318277
-0.839862
-0.229896
-1.34595
0.0803922
-0.290661
0.033533
-0.199281
0.589671
-0.235713
-0.489137
0.122576
-0.306319
0.376694
0.751608
-1.14048
-0.276743
-0.450091
0.406321
0.230071
0.108826
-0.768003
-0.0917974
-0.690138
-1.25604
-0.753892
-0.0140046
-0.523144
0.435967
-0.0591472
-0.464484
0.181301
0.0945514
-0.262567
-0.387556
0.0207835
-0.429103
0.0930679
0.156095
-0.404593
-0.434456
0.162255
-0.519601
-0.33797
0.201865
-0.476627
-0.326379
0.728732
0.218613
0.508818
0.365732
0.136003
-0.497295
0.0528279
-0.665945
-0.407064
-0.166103
-0.0274598
-0.137706
-0.948816
-0.52513
-0.165231
-0.416319
-0.497849
-0.29489
-0.220833
-0.417071
-0.0617714
0.0286965
0.373736
-0.628417
0.535024
-0.885463
-0.694138
0.368149
0.57793
0.068284
0.123437
0.0131496
0.116983
0.138665
-0.411265
-0.0139413
0.219585
0.235198
-0.0601342
0.298461
0.0492659
0.339763
-0.271521
-0.00972248
-0.322233
-0.21728
0.105532
-0.0329014
0.152693
-0.0389426
-0.301358
0.113938
-0.536297
-0.27693
-0.380953
1.16397
0.146928
0.418192
-0.0365807
0.593629
-0.129436
-0.256617
0.292866
-0.726781
-0.756384
0.155807
-0.510694
-0.267039
-0.526724
-0.159399
-0.36195
0.22431
-0.746468
-0.246502
-0.48876
-0.0337017
-0.143472
0.359925
-0.184747
0.261199
0.235939
-1.39705
-0.126583
0.766909
0.348275
0.0705551
-0.178564
-0.884906
0.2497
-0.419717
0.165493
0.227514
-0.416167
0.275663
-0.951665
0.440502
-0.142975
-0.488776
-0.11244
-0.324523
-0.134511
-0.591731
0.000106512
-0.391718
-0.389988
0.278332
0.219121
-0.657259
-0.045166
-0.149456
-0.553635
0.307448
0.843403
0.244291
0.0278466
0.880201
0.283832
-0.816676
-0.598064
0.0339104
-0.62664
-0.375174
-0.256685
0.160197
-0.480214
-0.00676515
-0.255848
0.141999
0.10878
-0.130141
-0.177463
-0.440231
-0.0345896
-0.179255
-0.0500047
-0.18113
-0.230202
-0.802418
-0.6644
0.160551
-0.611584
0.582261
0.0256367
-0.306397
-0.394724
0.494384
-0.303299
0.0125288
-0.168089
0.0211419
0.00513766
-0.779467
-0.0773335
-0.166834
-0.389732
-0.208881
-0.275898
0.377218
0.0978345
-0.325981
0.0224603
-0.482845
-0.0574122
-0.274763
-1.08055
0.128868
-0.140567
0.527048
-0.186917
-0.400506
-0.0589147
0.521233
0.158362
0.439467
-0.322465
-0.049533
0.258907
-0.306352
0.243412
-0.0178115
-0.347273
-0.0571662
0.0913274
0.118146
-0.155188
-0.168824
-0.00746143
-0.51381
-0.169689
-0.0594882
0.0250959
-0.493857
-0.109367
-0.25413
-0.716293
0.45306
0.263979
-0.195686
-0.027021
0.56555
-0.449183
-0.310451
-0.0511876
0.129012
0.0879335
-0.410361
-0.586299
-0.0207683
-0.111511
-0.0669628
0.225614
-0.182439
0.376436
-0.167595
0.710257
-0.241976
0.559066
-1.02941
-0.464621
-0.756391
0.0878819
-1.27831
-0.317385
0.0905901
0.620219
-0.251224
-0.384676
0.610914
0.892334
0.330889
0.341891
-0.656434
0.505427
-0.480135
0.652435
-0.33283
0.12746
0.0748421
-0.490112
0.117439
0.0548655
0.103009
0.460515
0.368992
0.0460766
-0.130358
0.322009
-0.939892
-0.0716753
0.0681848
-0.129277
-0.468088
-0.584653
-0.668335
-0.160425
-0.389599
-0.356227
0.222798
-0.21845
0.578518
-0.304321
0.0834177
-0.455885
-0.601351
0.154386
-0.568485
0.109894
0.850017
0.324352
0.331761
0.55292
-0.196094
0.168908
-0.0063641
-0.434402
-0.123574
-0.317948
-0.307904
-0.479904
0.124553
-0.157882
-0.173091
0.746845
0.535601
0.0672616
0.00356465
-0.232924
0.268562
0.761769
0.18657
-0.251938
0.357404
-0.901678
0.235585
0.488579
0.691352
0.673926
0.721994
0.106131
0.08722
0.0858282
-0.0941369
0.346836
-0.155673
0.452632
0.127345
0.0902834
-0.0157173
-0.183806
0.316736
-0.61022
0.0172054
0.445477
0.230835
0.633552
-0.0413014
-0.622635
-0.416675
0.377361
0.14062
-1.32308
0.750882
0.866303
0.632996
0.427823
0.16386
0.45103
-0.241488
-0.39931
0.360048
-0.164939
0.318967
-0.938544
-0.0054177
-0.786628
-0.349836
-0.0359096
-0.762472
0.246329
-0.152146
0.0387512
-0.0469905
-0.0810791
0.402456
0.542897
0.0393582
0.128888
-1.3006
-0.452096
1.32605
0.972162
1.20956
0.150912
0.148661
0.0990406
-0.0164511
-0.208453
0.088947
0.198004
-0.148918
-0.00302616
-0.0415676
-1.10319
0.523938
-0.788166
-0.0198455
0.0393891
0.0992691
0.333671
-0.171946
0.02057
-0.500244
-0.31455
-0.265464
-0.0741238
-1.37882
0.515882
1.22998
0.602962
0.432836
-0.0240325
0.0849788
-0.0455769
-0.629824
-1.04656
0.900758
0.708771
0.628595
-0.254276
0.0449072
-0.024393
-0.979809
-0.457494
-0.11212
-0.234699
0.472316
-0.318413
0.282797
0.135868
-0.0978397
-0.366379
-0.389339
-1.50153
-1.13276
0.563934
1.20254
1.18794
0.0814154
0.467245
-0.241192
-0.936995
-0.608859
0.446746
-0.354039
0.559959
0.717649
0.0521659
-0.897078
-0.243557
0.0991603
0.197876
-0.0592826
-0.00467984
0.0478122
0.113097
-0.0694731
0.0826502
0.125638
-0.275194
-1.06857
-1.1321
0.505469
0.840129
0.95052
0.260639
0.694961
0.57557
0.259762
-0.919267
-1.45272
-0.907073
0.35119
-0.212861
0.428478
0.379737
-0.637774
0.252146
0.181713
-0.594092
0.212588
0.247206
0.376851
0.180796
0.280637
-0.127059
-0.360777
-1.18542
-0.942238
-0.549199
-0.592603
0.826517
0.714638
0.94409
0.847576
0.529386
0.269869
-0.904506
-2.35441
-2.15115
-0.299769
-0.587646
-0.146736
-0.445311
-0.262035
0.534961
0.0269215
0.51121
0.149192
-0.0940434
0.212313
1.56956
0.213155
-1.12383
-1.38276
-1.57919
-0.195773
-1.07565
0.766045
0.342356
0.509382
0.34598
0.65422
0.832873
0.344044
-0.829497
-2.27447
-2.7833
-1.34853
-0.954459
0.0302055
-0.756313
0.66613
0.20035
0.448662
0.202177
0.467719
-0.497932
0.28498
-0.448843
-1.23337
-2.29812
-0.487508
-1.04232
-0.731588
0.128961
0.466465
0.179309
-0.212298
0.288065
0.476649
-0.0338984
0.663732
-0.279619
-2.11406
-1.78896
-2.39824
-1.80259
-0.503486
-0.300227
0.279724
1.17274
0.0357561
-0.363425
-0.319903
-1.06797
-0.883908
-2.78632
-4.71191
-2.68307
-0.696709
-1.29177
-0.222988
0.462081
-0.376168
0.152132
-0.326259
-0.0448664
-0.29454
0.614641
-0.146348
-0.0794081
-0.285628
-1.12104
-1.60594
-1.15855
-0.737465
-0.002276
-0.751555
-0.0757265
0.48787
-0.765989
-0.669544
-1.51762
-2.85492
-2.81647
-2.47103
-0.0411799
-0.294736
0.183788
0.369023
-0.488679
0.497648
0.403012
-0.196941
-0.0260486
0.184107
-0.231497
0.0721746
-0.765855
-0.53828
-1.49414
-1.38682
-0.422614
0.0181328
0.166797
-0.150501
0.47115
-0.0795053
-0.89007
-0.770225
-2.78381
-3.17063
-1.82901
-1.63721
0.336301
0.394732
-0.0939089
-0.289872
1.05048
-0.346518
0.241807
-0.156769
0.284551
-0.374478
-0.468521
0.246073
-0.542021
-1.02517
-0.837157
-1.07535
-0.891132
-0.488876
-0.132039
0.352713
0.705335
-0.876654
-0.742864
-0.663324
-1.68735
-1.73353
-0.978472
-0.0475723
0.589609
-0.0366863
0.251779
-0.328217
-0.834809
0.555001
-0.670075
0.0565794
-0.106933
0.217333
0.489458
-0.798198
0.369438
0.275615
-0.778211
-1.13043
-0.890017
0.095701
0.129307
0.0456343
-0.534471
0.190521
0.54221
-0.706336
-1.38493
-0.906525
1.53019
0.378138
1.22739
0.160709
1.02301
-0.244394
0.529893
0.0962361
1.23474
0.00200239
1.28941
0.38825
1.03917
0.572132
0.653315
-0.518133
0.28997
-0.274453
0.576049
0.206083
0.306239
-0.311363
1.17566
Bias: 
-2.77166

Neuron 11
Weights: 
0.773295
-0.320182
1.29213
1.44052
2.25574
0.761991
0.4964
1.79158
0.770752
0.735822
-0.41371
0.532269
0.516348
-0.988013
-0.138355
0.613411
-1.11327
-0.366953
2.14091
-0.561281
0.43207
-0.351505
-1.2718
2.26491
0.257238
0.902472
1.85358
0.594591
1.58897
0.820476
1.445
1.383
0.508745
1.18109
1.98747
0.270108
2.15445
4.24485
0.939059
-0.212752
1.2218
1.19594
-0.825307
-0.506985
0.2324
-0.133443
-0.408875
-0.967908
0.346046
-0.28684
0.584793
-0.10332
0.740704
1.74277
-0.103835
0.469827
2.21316
-0.955928
1.3381
2.5154
2.2664
1.2726
1.27209
2.58583
-0.107051
1.38069
0.350379
1.94926
-0.133521
-1.28068
0.628782
-0.177891
-0.498949
-1.12164
0.540093
-0.740763
-0.791569
-0.429574
-0.439441
-1.74557
-0.407559
1.46865
2.03387
1.05269
0.217734
1.4896
0.150868
0.875659
0.0422674
0.90086
1.69316
1.4822
1.99667
2.94302
-0.321613
0.532187
0.0168782
-0.636648
-0.676874
0.118526
-1.34605
0.488818
-0.299309
0.916557
-1.10696
0.664192
-0.458069
-0.291549
-0.0337515
-2.20005
-0.941164
1.16068
1.18151
-0.594194
2.33147
1.2413
1.21696
0.998915
1.59375
1.20455
1.3092
0.215621
-0.210454
1.84673
-1.71536
1.53192
-0.057478
0.664087
-0.583085
-0.539251
-0.159245
0.480755
0.384787
-0.316243
0.536507
-1.03992
-1.18713
2.29288
1.6423
1.18575
1.44571
1.7526
1.23826
0.314387
0.819197
0.957216
0.540335
0.746114
0.87157
-0.0314917
1.40526
-0.919458
0.494891
1.54113
0.00413988
0.812325
-0.145191
0.170571
-0.389411
0.200032
-0.906201
0.60953
-0.701483
-0.107677
1.05928
-0.6113
-0.387191
0.875986
2.06358
1.6384
-0.250937
0.617018
1.38121
1.80813
1.37371
2.32215
0.882868
2.3043
0.228386
-1.02541
1.37628
-0.466882
-0.684835
-0.0248552
-0.640348
0.126516
-0.191105
0.0223425
-0.926475
0.327345
-0.180855
-1.25785
-0.546593
-1.00696
0.606791
2.37093
0.806169
4.63079
1.02994
1.45296
1.21241
0.668599
2.1694
1.97711
1.00282
0.730128
0.428179
-0.410602
0.284148
-0.428197
1.11888
-0.34892
1.00139
1.51371
0.854199
-0.10768
0.77677
-0.321008
-0.391323
-0.0267718
-0.0845955
0.376841
-0.400963
1.92855
2.382
2.46625
0.488197
1.52946
-0.507836
2.1233
1.87637
2.04907
0.278728
-0.335186
0.493121
-0.205642
0.545975
0.2603
-0.47414
0.103788
0.159753
-0.433813
-0.749724
-0.915471
-0.0873571
-0.509501
-0.310521
0.0665695
0.169122
0.304878
-1.43752
1.02215
1.51747
0.545837
-0.494046
0.914174
1.44626
0.323787
1.82984
0.132184
2.55708
0.26719
-0.182609
0.993243
0.8112
-0.943979
-0.432724
0.359211
0.152701
-0.90816
1.12013
0.224895
-0.174749
1.02754
0.497794
-0.403332
-0.317259
-0.679467
1.53222
0.847706
2.57847
-0.397623
2.00311
-0.675407
1.22322
0.572152
1.67313
0.944534
1.30636
1.12505
-0.578551
0.385752
-0.711505
0.323805
1.30135
0.542024
-0.248678
-1.28637
1.13389
-0.10416
1.03406
-1.37779
-0.96732
-0.118571
-0.0988867
0.095237
0.788939
1.92636
1.76332
3.07394
1.08206
1.80214
0.407201
-0.203589
1.64079
2.40036
1.23926
1.82588
-0.117644
0.0634417
-1.13056
0.0217237
-0.12101
-1.06703
0.748585
-0.784725
-0.39626
-0.828216
-0.647784
1.9579
0.172266
1.92115
0.789746
-1.62145
-0.181674
-0.188291
1.01124
0.455145
1.58829
-0.230287
2.20409
3.44896
0.668857
1.19745
0.903948
1.8307
0.444831
1.43135
1.13982
-1.00845
0.717479
0.506303
0.0027445
-0.411863
1.73304
0.299409
1.06322
-0.0725974
0.175849
-0.621323
1.04663
0.904739
0.525688
-0.0520859
0.411573
1.81888
-0.185568
1.60807
1.30191
1.66848
-0.640704
2.34042
2.66942
0.456841
0.752109
-1.07791
-0.374745
0.478091
0.437845
0.43618
0.141416
0.441472
0.0802074
-1.87807
-0.0418828
0.528606
0.248386
-1.18143
0.251222
-1.43771
1.07703
2.62504
0.0261575
0.779576
1.81199
1.02952
0.805431
1.202
0.472316
1.19593
1.20066
2.24821
1.16616
0.813271
0.232
1.56448
0.219301
-0.540617
-0.728626
-0.24115
0.156771
0.996476
-0.172702
-0.798186
0.189683
-0.807193
0.0105202
0.717506
-0.505361
-0.858525
2.2464
1.62831
0.0829176
-0.28885
1.79647
-0.235542
0.756219
1.30987
-0.0230851
1.21907
0.472864
1.3222
-0.201857
-0.771625
-0.778052
-0.468145
1.00602
1.36883
0.468547
-0.201092
0.441072
-0.288409
-0.119773
-0.594851
-0.137051
0.943241
0.0509306
0.428722
-1.2001
2.37755
1.22123
0.93811
1.04002
-0.00441502
1.44878
2.47295
2.37038
-0.0734714
1.24059
0.9842
1.9779
0.13386
0.894639
0.158324
0.575277
-1.20734
-0.204075
-1.34604
0.0747073
0.839267
-0.225377
0.924953
0.594966
-0.30586
-0.0256852
1.22372
0.222172
2.35732
1.66071
0.184984
-0.1548
0.957614
0.797474
0.0945813
2.99222
2.14415
0.651436
2.16075
-0.164608
-0.0335293
0.479321
-1.20377
0.0750089
0.651117
-0.746578
-0.393753
1.1217
-1.07912
-0.39472
1.15491
-0.497066
-1.24175
-0.197079
0.41452
1.06023
2.12702
1.29105
-1.15893
0.715454
0.81908
0.490793
3.00134
1.81318
2.42349
1.38458
1.55979
0.780446
0.31527
0.359768
0.483475
0.405918
-0.15078
0.531779
0.693476
-0.864175
0.622952
-1.05738
-0.251043
-0.582087
1.24013
-0.724189
1.70687
0.376976
0.694862
3.01449
0.933561
1.44066
1.3966
-0.964219
0.794883
1.99429
0.821061
1.18172
0.824808
0.707676
-0.604978
1.56109
-0.671668
-0.760054
0.5979
-0.203788
0.0310306
0.206133
-1.05053
1.60424
-1.06684
-1.00752
0.554722
0.276602
1.41643
0.442757
-0.935842
0.564728
1.84733
1.32927
2.40964
1.71809
2.21203
1.39881
2.07993
2.39488
2.19264
4.90851
-0.878422
0.139915
0.77078
0.0044044
0.353199
-0.916206
-0.306474
0.125061
-1.06037
1.62659
-0.0673087
-0.898461
0.656135
-0.335656
1.5376
0.798589
-0.413887
2.08934
-0.0869182
0.788846
1.64501
2.07551
0.123533
2.60843
2.28593
1.71291
0.753169
1.33819
1.10943
0.176511
-0.242748
-0.592444
1.15452
-0.543974
0.402363
-0.292517
-1.0867
-0.357694
-1.08648
0.831824
-1.66986
1.18808
1.47399
0.327022
0.565314
0.833304
0.825776
1.6332
1.81306
0.711067
1.7371
0.953603
2.23292
0.866094
1.00076
1.23044
-0.686393
1.62466
-0.985446
0.544514
-1.75912
-1.31145
-1.0747
-0.137791
1.09652
-0.950989
-1.9538
-1.12085
1.99035
0.779538
0.938662
1.78828
0.844876
2.17404
1.83295
2.59353
1.34634
0.374601
1.29008
1.45755
1.8281
0.981201
2.75194
0.928596
1.91043
0.357825
1.20896
-0.331641
-1.15929
0.958861
1.78074
-1.00328
-1.06128
0.63632
-0.375396
0.168589
1.34945
1.06484
0.817471
0.113234
0.512086
-0.277497
0.756696
0.290798
1.04616
0.294167
2.10693
1.97274
2.95417
1.80165
1.7749
2.9054
1.33485
0.0737112
0.0611968
1.15935
-0.0939521
-0.0576099
0.601653
-1.15665
-1.20823
-0.00597764
1.66754
2.61548
-0.498057
1.4669
0.585273
1.70307
2.5002
0.0975903
0.928735
0.94534
0.0661642
0.829311
1.34675
1.54319
1.85868
0.820191
2.66425
2.23346
0.410147
1.8068
1.33593
1.7751
2.11314
-1.03982
-0.494882
-0.660613
0.422205
0.684424
-0.149845
1.06155
1.23743
0.413723
2.05031
1.16342
1.03676
1.4692
1.23475
1.60802
0.688865
-0.0633768
0.746087
2.53331
0.638408
1.25866
0.274115
0.894338
-1.01113
0.826441
-0.569386
-0.897435
-0.0451863
0.844121
-1.3556
0.739151
-0.442893
-0.131977
1.82408
1.97749
1.33218
1.04763
1.1011
0.910571
0.195897
0.363887
1.19618
2.23618
0.0967755
0.610202
1.32687
0.296445
2.09455
0.911107
2.08786
0.141218
1.30405
2.17024
3.15301
2.2862
-0.656714
-0.0824215
1.52625
0.461253
1.01192
2.01114
3.48575
0.433409
0.398021
1.08854
-0.0967941
Bias: 
6.63537

Neuron 12
Weights: 
0.805207
0.666727
0.910927
0.53145
0.779793
0.385768
0.113929
0.401924
-0.428736
-0.524171
0.125383
-0.0312825
-0.382664
0.0694065
-0.263301
-0.223454
-0.280856
-0.136423
-0.398476
-0.195847
-0.611196
-0.215509
0.224723
0.0817225
-0.00584583
0.184977
0.237116
0.509108
0.790123
1.25207
0.508421
0.359584
0.396449
0.378266
0.179631
0.155499
-0.292951
-0.295694
-0.370192
-0.606948
-0.455582
-0.817996
-0.606005
-0.660671
-0.692855
-0.670685
-0.330701
-0.339916
-0.173208
-0.475964
-0.0659792
0.109609
0.30715
0.260482
0.193651
0.266215
0.759686
0.657414
0.937574
0.580046
0.380359
0.223433
-0.143744
-0.248138
-0.518474
-0.696101
-0.866447
-0.778892
-1.04919
-0.867374
-0.964853
-0.953474
-0.842564
-0.451435
-0.154426
-0.393718
-0.0375084
0.172007
-0.354184
0.223716
-0.094481
0.145054
0.116844
0.60422
0.753343
0.469815
0.533084
0.591055
0.494922
-0.158593
-0.0238446
-0.220835
-0.313207
-0.350145
-0.113622
-0.136888
-0.258735
-0.545763
-0.197648
-0.0606653
-0.0606484
-0.0771784
-0.333225
-0.138921
-0.423815
-0.170443
0.254597
-0.00812685
-0.292396
0.332037
0.276812
0.274582
0.732288
0.649468
0.309067
0.302544
0.183169
-0.0709393
0.0724339
0.206988
-0.0995025
0.142669
0.112359
0.125535
0.0200324
0.183116
-0.0463631
0.0878349
0.0968214
0.0856983
0.0754033
-0.193964
0.0947892
0.0319929
0.0741225
0.124991
-0.169192
0.113473
0.26946
0.315622
0.551681
0.254905
-0.112599
0.0458045
-0.203304
0.0687681
-0.295021
-0.036245
0.00755123
0.137648
-0.181053
0.0698238
0.27678
-0.00158966
0.110039
-0.158312
0.0170757
0.0929835
-0.0662712
-0.0116576
0.0927692
0.177847
-0.0442534
-0.260692
0.16065
0.119963
-0.154786
0.264499
0.471163
0.112222
0.0561819
-0.0409295
-0.237923
0.159262
0.142501
-0.113246
-0.167251
0.0789892
-0.0490399
0.0128994
0.0431687
-0.0629454
0.0915295
0.193497
0.14226
0.0204814
-0.255823
-0.00752537
-0.204122
-0.224697
0.208932
-0.0775407
0.19111
0.236429
0.156679
0.0929137
0.440343
0.534814
0.17347
0.0180142
0.264084
0.00525294
-0.0823363
0.138169
0.124822
-0.0503469
0.0186453
0.223158
-0.0289435
-0.0251688
0.121765
-0.0378853
-0.0602789
0.022468
-0.0292248
0.132676
0.236709
0.0700981
-0.157679
0.0186107
-0.0949059
-0.0928644
-0.0238961
0.346596
0.666912
0.300077
0.17589
-0.00822249
0.104426
-0.251319
0.137654
-0.206233
-0.0471118
0.169315
-0.109514
0.160203
-0.0432504
0.0182134
0.0332453
0.012659
-0.102677
-0.0669465
0.0949412
0.0281784
-0.190987
0.191995
-0.0342872
-0.267442
0.0811251
-0.113439
-0.225846
0.248452
0.317558
0.0373755
0.0829132
0.0448635
-0.109851
-0.0625497
-0.121312
0.147328
-0.0469471
-0.112953
0.0703642
0.00304478
-0.0784754
0.0255506
0.0388067
0.116414
0.0656758
0.20237
0.0703159
0.0496118
0.0604875
-0.188379
0.165859
0.221199
-0.0834492
0.291227
0.0397717
0.0586885
0.445695
0.165055
-0.125169
-0.10149
0.192937
0.299021
0.187951
-0.0192087
-0.0820147
0.0180896
-0.353318
0.201388
-0.000974186
0.0882333
0.0170657
-0.0139306
0.0700645
-0.188605
0.029531
-0.137232
-0.0537354
0.181123
0.0161033
0.0288542
-0.237331
-0.162839
-0.15349
0.0880305
-0.107824
0.138264
-0.149107
-0.077049
-0.0923
-0.253315
-0.0317237
-0.24476
0.0281175
-0.103651
0.236674
-0.0296964
-0.083879
-0.0386205
-0.222464
-0.135709
-0.270911
-0.073991
-0.0699904
0.0431412
-0.0138057
-0.0479224
-0.137853
0.180653
-0.0704198
-0.0892708
-0.514148
-0.471174
0.223823
-0.209936
-0.237002
-0.26335
0.0905777
0.0866387
-0.120037
0.128373
-0.182092
-0.0244793
-0.0763679
-0.0971697
-0.160693
-0.174754
0.00728545
-0.140109
-0.154547
-0.159553
-0.16717
0.0299941
-0.0804606
0.0141303
-0.235902
-0.230649
-0.144533
-0.0667136
-0.118572
0.273782
0.306339
-0.330263
0.00489924
-0.386483
-0.108254
-0.0070325
0.132642
0.0971407
0.196427
0.217696
-0.0508671
0.185439
0.0431827
0.125647
0.0800481
0.215386
-0.0781718
-0.115461
-0.0452833
-0.201173
-0.142672
-0.26958
-0.221231
0.0292425
-0.224611
-0.228718
-0.339095
-0.227495
0.236838
-0.1847
-0.397117
0.0405635
0.0114777
-0.162773
0.161543
0.0216338
0.0259342
-0.127328
0.0747229
0.276122
0.000206648
0.184768
0.200988
0.0388242
0.180024
-0.0232911
-0.0986127
-0.112397
-0.134267
0.0536431
-0.336507
-0.495448
-0.31922
-0.0525253
-0.514755
0.0662244
-0.0212053
-0.411764
-0.801667
-0.294165
-0.349282
0.233249
0.392263
0.0981597
0.0398139
0.0230882
0.26606
0.171824
0.304038
0.201392
0.11907
0.287225
0.0428209
0.0560226
-0.00873433
-0.19825
-0.0813202
-0.149688
0.0864921
-0.441133
0.005232
-0.0421399
-0.207406
-0.0644413
-0.414445
-0.670656
-1.09012
-1.42527
-0.657268
-0.224242
0.352314
0.297213
0.324745
0.499328
0.169208
0.423325
-0.0175022
0.174027
0.154634
0.0310265
0.0571626
0.0522693
-0.045384
-0.187814
-0.334965
-0.383363
-0.0949566
-0.0121953
-0.350064
-0.178216
0.261411
-0.0910459
-0.061351
-0.813514
-0.975619
-1.81374
-1.6973
-1.86774
-1.66489
-0.504847
-0.222122
0.103418
0.548836
0.276112
0.213808
0.485191
0.158207
0.208869
-0.099929
-0.0137294
-0.21679
0.202122
-0.12112
0.0522661
0.122226
-0.086517
0.213343
0.286018
-0.206849
0.229435
-0.443192
-0.721407
-0.743401
-0.887872
-1.60994
-2.04515
-2.65894
-2.31443
-2.0629
-1.20756
-0.618836
-0.159219
0.191099
-0.384935
-0.0525198
-0.277422
-0.0579574
-0.0412445
-0.0413061
-0.0917804
0.0227507
0.0707592
0.467889
-0.0201007
-0.0484346
0.0815187
-0.266254
0.422451
-0.00787297
-0.190813
-0.296964
-0.202661
-0.61066
-1.07826
-1.64615
-2.22715
-2.76742
-3.26605
-3.11715
-2.03643
-1.62132
-0.978428
-0.670025
-0.532226
-0.328665
-0.226685
0.100289
0.142379
0.327238
0.219869
0.164403
0.135216
0.300821
0.327301
0.274846
0.39268
0.187894
0.160328
0.219045
0.513641
0.552483
0.458507
0.519154
0.521752
0.118137
-0.165565
-0.564361
-1.01501
-0.804943
-0.590426
-0.516736
-0.328304
-0.0855928
-0.114251
0.0893476
-0.0777584
0.0644675
0.0266232
0.207472
0.00315881
-0.0362364
0.27943
0.125316
0.431159
0.68948
0.474773
0.666447
0.625354
0.828939
0.756324
0.888993
0.589115
0.717604
0.709979
0.524439
0.422388
0.223403
0.17044
0.212585
-0.353479
0.112228
-0.0845477
0.0618577
0.146
-0.0266446
0.0028339
0.0336658
0.0127979
0.115637
-0.329533
0.200308
0.469397
0.820179
0.468313
0.552013
0.555657
0.334739
0.710728
0.549379
0.595958
0.562576
0.379766
0.404809
0.203237
0.144977
0.0987423
-0.0366206
0.133071
0.0625665
0.00706139
-0.0802814
-0.11149
0.135197
-0.0131849
-0.0549718
0.136677
-0.220724
0.254293
0.155116
0.570842
0.313977
0.419902
0.0527292
0.805791
0.214032
0.509212
-0.00820772
0.445317
0.0536699
0.156386
0.289504
0.136871
0.411089
0.116099
0.14153
0.150764
0.0608586
-0.0707139
0.0176151
0.164322
-0.0098589
0.0110372
-0.070237
0.0353933
0.0373441
-0.104211
0.0617094
0.317957
0.18418
-0.164893
-0.238683
-0.210526
0.14573
-0.0721446
-0.0617355
-0.0748899
0.298068
0.123443
0.0561246
0.1099
0.110429
0.252282
0.0556305
0.113454
0.0379701
0.0688653
-0.0549863
0.0380272
-0.00365001
0.118493
-0.194941
-0.192083
-0.0735073
0.247211
0.372366
0.585322
0.379831
-0.185666
-0.394309
-0.208607
-0.094714
-0.202736
0.198091
0.049831
0.160577
-0.0710805
0.227599
-0.0997172
0.0766758
0.123279
0.226222
0.0783714
-0.128045
0.275851
-0.0722954
0.243376
-0.19694
-0.138753
-0.0334783
0.297859
-0.0578157
0.357094
0.679927
0.723769
0.838238
0.507843
-0.123454
-0.0518596
-0.0168473
-0.0309368
-0.0744747
0.182802
0.175282
0.0330032
0.294409
-0.0271553
0.260057
0.0515573
0.0603024
-0.0277797
-0.105307
-0.0600347
0.25384
0.0508204
-0.0820408
0.0225835
0.0146327
0.110074
0.120119
0.495327
0.446526
0.450382
0.791048
0.385353
0.276798
0.0560747
-0.249524
0.0874774
0.159051
-0.200945
-0.140112
0.258103
-0.341623
0.120222
-0.110131
0.125368
0.248059
0.0419367
0.220199
-0.0536401
0.0792447
-0.220243
-0.273063
0.155325
0.176859
0.316164
0.540996
0.683604
0.878157
0.980222
Bias: 
-0.71146

Neuron 13
Weights: 
-0.791374
-0.895544
-1.05238
-0.879443
-1.44551
-1.24173
-0.947303
-1.07601
-1.63305
-1.08169
-1.03037
-1.1924
-0.722198
0.0778673
0.11328
0.75551
1.49232
1.01914
0.358299
0.0516421
-0.40189
-0.40594
-0.6959
-0.943143
-1.23655
-1.00848
-1.21319
-0.795133
-0.949529
-1.13242
-0.671319
-0.797781
-1.08639
-1.35662
-0.903402
-1.43721
-1.31763
-1.17529
-0.242906
-0.589251
-0.436133
0.0724877
0.84789
2.37463
2.31072
1.25278
0.108403
0.379746
-0.331668
-0.570835
-0.404086
-0.814317
-0.693218
-0.538544
-0.509442
-0.69359
-0.552801
-0.98499
-0.723815
-1.02819
-0.481145
-0.604822
-0.507891
-0.826429
-0.839673
-0.923622
-0.827219
-0.875644
-0.346273
0.478448
1.70455
3.41981
1.60877
0.731862
0.125756
-0.412523
-0.246099
-0.461458
-0.315899
0.383713
-0.314005
-0.0637103
-0.370109
-0.780452
-0.816075
-1.13057
-0.710659
-0.253831
-0.439845
-0.0121597
-0.638353
0.00894551
-0.679753
-0.934814
-0.575632
-0.99965
-0.453737
0.348393
2.31775
4.14105
1.73559
-0.0405492
-0.0633342
-0.282394
-0.445903
0.0449095
-0.285278
-0.20118
0.190054
-0.191611
0.21093
-0.479885
-1.0509
-1.1895
-0.742693
-0.203953
0.408372
0.199487
0.316671
-0.158826
-0.430733
-1.11629
-0.289102
-1.00384
-0.689976
0.519392
3.06025
3.6719
0.719969
0.109992
-0.248845
-0.140104
0.0161716
0.304098
0.1253
-0.137859
0.327095
0.468153
0.534633
0.0651319
-1.27305
-0.647294
-0.426791
0.125285
-0.0698413
0.483125
0.104004
0.307178
-0.0684904
-0.184942
-0.895383
-0.667742
-0.727262
0.711945
3.83625
3.00174
0.338253
-0.0679911
-0.192759
-0.416971
0.783624
0.28414
-0.133633
0.549059
0.179715
0.917262
0.826312
0.443745
-0.913523
-0.535972
-0.123838
-0.612995
0.336678
-0.0198833
0.650417
-0.245316
-0.355141
-0.460689
-0.638953
-0.665599
-1.20952
0.997776
4.61898
1.93192
0.111343
-0.284164
-0.296951
-0.158122
-0.0912599
0.289422
0.180976
-0.170803
-0.364117
0.60393
0.758061
0.242074
-0.941693
-0.352546
0.25898
0.252974
0.888784
0.847188
-0.211821
-0.0954663
-0.125696
-0.445821
-1.10682
-0.846497
-0.952763
1.30774
5.00086
1.0494
-0.0825643
-0.458102
-0.350453
-0.525941
0.121623
0.0307054
0.318793
0.0869576
0.205866
0.879436
0.587569
-0.0425801
-0.610553
-0.557253
-0.643173
-0.0772822
-0.0248401
0.50374
0.28454
-0.17962
-0.214495
-0.143437
-0.269986
-0.447846
-0.640257
1.72843
4.20225
0.086097
-0.0210774
-0.811932
-0.474552
-0.00602904
0.158748
-0.136133
0.45463
0.164604
0.543136
0.346953
0.305437
-0.122405
-1.14886
0.104621
-0.109452
0.162853
0.255857
0.250636
0.345493
0.215254
-0.373626
-0.0087028
-0.457367
-0.690263
-0.258394
2.46199
2.32413
0.00187252
-0.568083
-0.661048
-0.286355
-0.297493
0.240077
-0.00803982
0.542119
0.210189
0.618379
0.241148
0.468682
-0.346779
-0.743646
-0.734053
-0.0782078
-0.0337779
0.0416969
0.220473
0.0239096
0.278359
-0.316956
-0.371643
-0.200341
-0.661553
0.0985112
2.11114
1.02478
0.00104557
-0.375912
-0.426414
-0.432181
-0.0594277
-0.239938
0.375455
0.331659
0.779285
0.349036
-0.100028
-0.00342011
-0.0867312
-0.852395
-0.21383
-0.202538
0.200838
0.300684
0.330031
-0.00650324
0.350719
0.342922
0.0574312
0.0886594
-0.40051
0.684403
1.45164
0.413356
-0.244082
0.0246004
-0.149519
-0.186252
-0.0801143
0.369965
0.174727
0.405352
0.34392
0.126536
0.141864
0.14904
-0.234835
-0.258627
0.490968
0.0136414
-0.147398
0.0383573
0.0535168
0.0844548
-0.0384665
-0.393857
-0.260457
-0.314093
-0.204683
0.929467
0.645783
0.0832254
0.0372512
-0.247261
-0.0795775
-0.139238
-0.038505
0.00580769
0.633035
0.26006
0.45065
0.490671
-0.580916
0.125156
-0.477802
-0.277947
0.127775
-0.0844602
0.0197311
-0.133237
0.0445241
-0.199076
0.0326876
0.205836
0.128929
-0.195163
0.206882
0.189287
0.716086
-0.0736063
0.169913
-0.224955
0.151193
0.0131597
-0.156494
0.171123
-0.12536
0.548553
-0.18608
0.0523948
